<?xml version="1.0"?>
<opencv_storage>
<cascade>
  <stageType>BOOST</stageType>
  <featureType>HAAR</featureType>
  <height>24</height>
  <width>24</width>
  <stageParams>
    <boostType>GAB</boostType>
    <minHitRate>9.9900001287460327e-01</minHitRate>
    <maxFalseAlarm>3.0000001192092896e-01</maxFalseAlarm>
    <weightTrimRate>9.4999999999999996e-01</weightTrimRate>
    <maxDepth>1</maxDepth>
    <maxWeakCount>100</maxWeakCount></stageParams>
  <featureParams>
    <maxCatCount>0</maxCatCount>
    <featSize>1</featSize>
    <mode>BASIC</mode></featureParams>
  <stageNum>14</stageNum>
  <stages>
    <!-- stage 0 -->
    <_>
      <maxWeakCount>36</maxWeakCount>
      <stageThreshold>-1.3713741302490234e+00</stageThreshold>
      <weakClassifiers>
        <_>
          <internalNodes>
            0 -1 150 2.6755306869745255e-02</internalNodes>
          <leafValues>
            -4.9671053886413574e-01 2.8895613551139832e-01</leafValues></_>
        <_>
          <internalNodes>
            0 -1 884 -3.2441369257867336e-03</internalNodes>
          <leafValues>
            3.2930079102516174e-01 -3.2498422265052795e-01</leafValues></_>
        <_>
          <internalNodes>
            0 -1 485 -1.6749981790781021e-02</internalNodes>
          <leafValues>
            4.2605382204055786e-01 -2.4723365902900696e-01</leafValues></_>
        <_>
          <internalNodes>
            0 -1 99 -1.7415853217244148e-02</internalNodes>
          <leafValues>
            -9.5880776643753052e-01 8.9122056961059570e-02</leafValues></_>
        <_>
          <internalNodes>
            0 -1 898 3.2618984580039978e-02</internalNodes>
          <leafValues>
            -1.9323179125785828e-01 3.7095865607261658e-01</leafValues></_>
        <_>
          <internalNodes>
            0 -1 295 -7.0813428610563278e-03</internalNodes>
          <leafValues>
            4.2577168345451355e-01 -1.6589431464672089e-01</leafValues></_>
        <_>
          <internalNodes>
            0 -1 803 -2.9796484857797623e-02</internalNodes>
          <leafValues>
            5.2422177791595459e-01 -1.2405189126729965e-01</leafValues></_>
        <_>
          <internalNodes>
            0 -1 131 -2.8257151134312153e-03</internalNodes>
          <leafValues>
            1.0554808378219604e-01 -6.3374191522598267e-01</leafValues></_>
        <_>
          <internalNodes>
            0 -1 515 -1.3413459993898869e-02</internalNodes>
          <leafValues>
            7.0283448696136475e-01 -8.4662623703479767e-02</leafValues></_>
        <_>
          <internalNodes>
            0 -1 575 6.0315066948533058e-03</internalNodes>
          <leafValues>
            -1.2941600382328033e-01 4.9344024062156677e-01</leafValues></_>
        <_>
          <internalNodes>
            0 -1 1040 -3.1677789520472288e-03</internalNodes>
          <leafValues>
            -6.5161561965942383e-01 9.1733194887638092e-02</leafValues></_>
        <_>
          <internalNodes>
            0 -1 418 -4.3995179235935211e-02</internalNodes>
          <leafValues>
            6.5228748321533203e-01 -8.5665866732597351e-02</leafValues></_>
        <_>
          <internalNodes>
            0 -1 171 -5.3423643112182617e-02</internalNodes>
          <leafValues>
            4.1478389501571655e-01 -1.4370204508304596e-01</leafValues></_>
        <_>
          <internalNodes>
            0 -1 240 5.3661372512578964e-03</internalNodes>
          <leafValues>
            -1.4689208567142487e-01 3.5151386260986328e-01</leafValues></_>
        <_>
          <internalNodes>
            0 -1 228 1.1748233810067177e-02</internalNodes>
          <leafValues>
            -1.3169609010219574e-01 4.8522645235061646e-01</leafValues></_>
        <_>
          <internalNodes>
            0 -1 1056 -2.4828580208122730e-03</internalNodes>
          <leafValues>
            1.0394711047410965e-01 -6.4668726921081543e-01</leafValues></_>
        <_>
          <internalNodes>
            0 -1 888 -4.6406118199229240e-03</internalNodes>
          <leafValues>
            3.6249837279319763e-01 -1.7504294216632843e-01</leafValues></_>
        <_>
          <internalNodes>
            0 -1 1113 7.5836782343685627e-04</internalNodes>
          <leafValues>
            1.4662460982799530e-01 -3.9213499426841736e-01</leafValues></_>
        <_>
          <internalNodes>
            0 -1 570 -1.2214364483952522e-02</internalNodes>
          <leafValues>
            3.8232383131980896e-01 -1.4734017848968506e-01</leafValues></_>
        <_>
          <internalNodes>
            0 -1 626 1.5344409272074699e-02</internalNodes>
          <leafValues>
            -1.0336919873952866e-01 4.2307913303375244e-01</leafValues></_>
        <_>
          <internalNodes>
            0 -1 1114 1.9907117821276188e-03</internalNodes>
          <leafValues>
            1.0152442753314972e-01 -5.2813827991485596e-01</leafValues></_>
        <_>
          <internalNodes>
            0 -1 627 -4.4692615047097206e-03</internalNodes>
          <leafValues>
            2.6384806632995605e-01 -1.9741652905941010e-01</leafValues></_>
        <_>
          <internalNodes>
            0 -1 876 1.4110779389739037e-02</internalNodes>
          <leafValues>
            -9.6065528690814972e-02 4.8587995767593384e-01</leafValues></_>
        <_>
          <internalNodes>
            0 -1 713 -5.0154728814959526e-03</internalNodes>
          <leafValues>
            3.5334271192550659e-01 -1.4635252952575684e-01</leafValues></_>
        <_>
          <internalNodes>
            0 -1 1094 -2.1070376969873905e-03</internalNodes>
          <leafValues>
            -5.1995879411697388e-01 9.1779716312885284e-02</leafValues></_>
        <_>
          <internalNodes>
            0 -1 517 -2.7983956970274448e-03</internalNodes>
          <leafValues>
            4.5007950067520142e-01 -1.1232865601778030e-01</leafValues></_>
        <_>
          <internalNodes>
            0 -1 189 -3.6704946309328079e-02</internalNodes>
          <leafValues>
            7.5382173061370850e-01 -5.9862561523914337e-02</leafValues></_>
        <_>
          <internalNodes>
            0 -1 190 1.9299067556858063e-02</internalNodes>
          <leafValues>
            -1.0328234732151031e-01 4.5344597101211548e-01</leafValues></_>
        <_>
          <internalNodes>
            0 -1 183 8.5749533027410507e-03</internalNodes>
          <leafValues>
            7.5436167418956757e-02 -7.2616827487945557e-01</leafValues></_>
        <_>
          <internalNodes>
            0 -1 821 7.9533858224749565e-03</internalNodes>
          <leafValues>
            6.7878186702728271e-02 -5.5885106325149536e-01</leafValues></_>
        <_>
          <internalNodes>
            0 -1 238 -4.3574301525950432e-03</internalNodes>
          <leafValues>
            4.1103400290012360e-02 -9.5615953207015991e-01</leafValues></_>
        <_>
          <internalNodes>
            0 -1 852 1.9605487585067749e-02</internalNodes>
          <leafValues>
            -1.3698610663414001e-01 3.6007472872734070e-01</leafValues></_>
        <_>
          <internalNodes>
            0 -1 130 -6.3120189588516951e-04</internalNodes>
          <leafValues>
            -5.0733369588851929e-01 1.0245122760534286e-01</leafValues></_>
        <_>
          <internalNodes>
            0 -1 798 1.0476857423782349e-02</internalNodes>
          <leafValues>
            -1.4698463678359985e-01 3.3369287848472595e-01</leafValues></_>
        <_>
          <internalNodes>
            0 -1 264 2.3930452764034271e-02</internalNodes>
          <leafValues>
            6.8951733410358429e-02 -7.5068700313568115e-01</leafValues></_>
        <_>
          <internalNodes>
            0 -1 707 8.0110523849725723e-03</internalNodes>
          <leafValues>
            -1.6438992321491241e-01 3.0304342508316040e-01</leafValues></_></weakClassifiers></_>
    <!-- stage 1 -->
    <_>
      <maxWeakCount>54</maxWeakCount>
      <stageThreshold>-1.2701537609100342e+00</stageThreshold>
      <weakClassifiers>
        <_>
          <internalNodes>
            0 -1 203 -6.4892396330833435e-02</internalNodes>
          <leafValues>
            -5.3915661573410034e-01 8.6430425290018320e-04</leafValues></_>
        <_>
          <internalNodes>
            0 -1 223 3.4474290907382965e-02</internalNodes>
          <leafValues>
            -2.2002193331718445e-01 3.4765788912773132e-01</leafValues></_>
        <_>
          <internalNodes>
            0 -1 540 1.4945676550269127e-02</internalNodes>
          <leafValues>
            -1.3778780400753021e-01 4.7325113415718079e-01</leafValues></_>
        <_>
          <internalNodes>
            0 -1 986 3.6985702812671661e-02</internalNodes>
          <leafValues>
            -1.5460367500782013e-01 3.2371836900711060e-01</leafValues></_>
        <_>
          <internalNodes>
            0 -1 21 -4.3770292401313782e-01</internalNodes>
          <leafValues>
            -6.8358933925628662e-01 7.0819646120071411e-02</leafValues></_>
        <_>
          <internalNodes>
            0 -1 513 -2.7587823569774628e-03</internalNodes>
          <leafValues>
            5.3952664136886597e-01 -7.5498871505260468e-02</leafValues></_>
        <_>
          <internalNodes>
            0 -1 1140 -2.4355908390134573e-03</internalNodes>
          <leafValues>
            -5.0041413307189941e-01 9.6044450998306274e-02</leafValues></_>
        <_>
          <internalNodes>
            0 -1 293 -5.1503276824951172e-01</internalNodes>
          <leafValues>
            -6.1962771415710449e-01 7.5893327593803406e-02</leafValues></_>
        <_>
          <internalNodes>
            0 -1 600 5.9011094272136688e-03</internalNodes>
          <leafValues>
            -1.2413299828767776e-01 4.0972959995269775e-01</leafValues></_>
        <_>
          <internalNodes>
            0 -1 734 1.4469131827354431e-02</internalNodes>
          <leafValues>
            -7.3672220110893250e-02 6.3635170459747314e-01</leafValues></_>
        <_>
          <internalNodes>
            0 -1 121 1.0019241832196712e-02</internalNodes>
          <leafValues>
            1.6095468401908875e-01 -2.8400871157646179e-01</leafValues></_>
        <_>
          <internalNodes>
            0 -1 585 -4.0864553302526474e-03</internalNodes>
          <leafValues>
            3.8507503271102905e-01 -1.2071137875318527e-01</leafValues></_>
        <_>
          <internalNodes>
            0 -1 11 -8.2230586558580399e-03</internalNodes>
          <leafValues>
            -4.3464320898056030e-01 1.0378368943929672e-01</leafValues></_>
        <_>
          <internalNodes>
            0 -1 13 7.5261290185153484e-03</internalNodes>
          <leafValues>
            8.1226892769336700e-02 -5.6395578384399414e-01</leafValues></_>
        <_>
          <internalNodes>
            0 -1 622 -5.1022069528698921e-03</internalNodes>
          <leafValues>
            4.0508377552032471e-01 -1.1175320297479630e-01</leafValues></_>
        <_>
          <internalNodes>
            0 -1 455 1.3085717335343361e-02</internalNodes>
          <leafValues>
            -1.0522567480802536e-01 4.0274766087532043e-01</leafValues></_>
        <_>
          <internalNodes>
            0 -1 963 -4.5580388978123665e-03</internalNodes>
          <leafValues>
            -5.5834883451461792e-01 6.1348188668489456e-02</leafValues></_>
        <_>
          <internalNodes>
            0 -1 915 1.1596322059631348e-02</internalNodes>
          <leafValues>
            8.6598545312881470e-02 -4.4220775365829468e-01</leafValues></_>
        <_>
          <internalNodes>
            0 -1 149 1.9410760700702667e-01</internalNodes>
          <leafValues>
            5.3321328014135361e-02 -6.3157588243484497e-01</leafValues></_>
        <_>
          <internalNodes>
            0 -1 363 -4.2215306311845779e-03</internalNodes>
          <leafValues>
            3.5610094666481018e-01 -1.0740822553634644e-01</leafValues></_>
        <_>
          <internalNodes>
            0 -1 736 7.8543633222579956e-02</internalNodes>
          <leafValues>
            -7.7258400619029999e-02 4.5730325579643250e-01</leafValues></_>
        <_>
          <internalNodes>
            0 -1 61 9.5409944653511047e-02</internalNodes>
          <leafValues>
            8.1599272787570953e-02 -6.5113252401351929e-01</leafValues></_>
        <_>
          <internalNodes>
            0 -1 848 -1.5661888755857944e-03</internalNodes>
          <leafValues>
            2.2916515171527863e-01 -1.6670651733875275e-01</leafValues></_>
        <_>
          <internalNodes>
            0 -1 960 -3.7268996238708496e-02</internalNodes>
          <leafValues>
            4.9647621810436249e-02 -8.2242369651794434e-01</leafValues></_>
        <_>
          <internalNodes>
            0 -1 1064 -1.9094590097665787e-03</internalNodes>
          <leafValues>
            -5.5614924430847168e-01 5.7382561266422272e-02</leafValues></_>
        <_>
          <internalNodes>
            0 -1 694 -8.0984100699424744e-02</internalNodes>
          <leafValues>
            -2.9202240705490112e-01 1.0925688594579697e-01</leafValues></_>
        <_>
          <internalNodes>
            0 -1 566 1.3167583383619785e-02</internalNodes>
          <leafValues>
            -1.0158163309097290e-01 3.5258683562278748e-01</leafValues></_>
        <_>
          <internalNodes>
            0 -1 519 1.0025370866060257e-03</internalNodes>
          <leafValues>
            -8.2631379365921021e-02 4.0816110372543335e-01</leafValues></_>
        <_>
          <internalNodes>
            0 -1 1153 2.2267131134867668e-03</internalNodes>
          <leafValues>
            6.5157055854797363e-02 -5.5490195751190186e-01</leafValues></_>
        <_>
          <internalNodes>
            0 -1 25 5.5417738622054458e-04</internalNodes>
          <leafValues>
            1.0549003630876541e-01 -3.5370966792106628e-01</leafValues></_>
        <_>
          <internalNodes>
            0 -1 306 4.1699521243572235e-03</internalNodes>
          <leafValues>
            -1.1920396238565445e-01 3.3211946487426758e-01</leafValues></_>
        <_>
          <internalNodes>
            0 -1 186 -3.7091255187988281e-02</internalNodes>
          <leafValues>
            2.9723021388053894e-01 -1.2715059518814087e-01</leafValues></_>
        <_>
          <internalNodes>
            0 -1 3 -1.3517332263290882e-03</internalNodes>
          <leafValues>
            -5.4666984081268311e-01 7.2553813457489014e-02</leafValues></_>
        <_>
          <internalNodes>
            0 -1 416 4.0628565475344658e-03</internalNodes>
          <leafValues>
            -8.2379870116710663e-02 4.9218603968620300e-01</leafValues></_>
        <_>
          <internalNodes>
            0 -1 733 2.8994497843086720e-03</internalNodes>
          <leafValues>
            -9.9374666810035706e-02 3.4877833724021912e-01</leafValues></_>
        <_>
          <internalNodes>
            0 -1 733 -1.9949730485677719e-03</internalNodes>
          <leafValues>
            3.5106846690177917e-01 -1.2370646744966507e-01</leafValues></_>
        <_>
          <internalNodes>
            0 -1 870 -7.4422120815142989e-04</internalNodes>
          <leafValues>
            3.0546641349792480e-01 -1.2378744781017303e-01</leafValues></_>
        <_>
          <internalNodes>
            0 -1 1059 -4.3519544415175915e-03</internalNodes>
          <leafValues>
            -4.6423119306564331e-01 8.8074550032615662e-02</leafValues></_>
        <_>
          <internalNodes>
            0 -1 921 -9.1004166752099991e-03</internalNodes>
          <leafValues>
            3.2613956928253174e-01 -1.1994714289903641e-01</leafValues></_>
        <_>
          <internalNodes>
            0 -1 419 -4.9958201125264168e-03</internalNodes>
          <leafValues>
            2.8363037109375000e-01 -1.3072949647903442e-01</leafValues></_>
        <_>
          <internalNodes>
            0 -1 845 7.8817103058099747e-03</internalNodes>
          <leafValues>
            -1.2415158748626709e-01 3.1010630726814270e-01</leafValues></_>
        <_>
          <internalNodes>
            0 -1 120 -3.6114784888923168e-03</internalNodes>
          <leafValues>
            -7.7809965610504150e-01 5.3399778902530670e-02</leafValues></_>
        <_>
          <internalNodes>
            0 -1 498 2.8872255235910416e-02</internalNodes>
          <leafValues>
            -1.1544685065746307e-01 3.6178591847419739e-01</leafValues></_>
        <_>
          <internalNodes>
            0 -1 312 -4.0618218481540680e-02</internalNodes>
          <leafValues>
            3.1068032979965210e-01 -1.4828492701053619e-01</leafValues></_>
        <_>
          <internalNodes>
            0 -1 276 2.0814914256334305e-02</internalNodes>
          <leafValues>
            -1.0206484794616699e-01 3.4289330244064331e-01</leafValues></_>
        <_>
          <internalNodes>
            0 -1 475 5.1206150092184544e-03</internalNodes>
          <leafValues>
            -1.3487276434898376e-01 2.5131532549858093e-01</leafValues></_>
        <_>
          <internalNodes>
            0 -1 1107 -1.2467639520764351e-02</internalNodes>
          <leafValues>
            -7.0814526081085205e-01 4.9398351460695267e-02</leafValues></_>
        <_>
          <internalNodes>
            0 -1 345 -7.0750508457422256e-03</internalNodes>
          <leafValues>
            6.8674433231353760e-01 -5.8566380292177200e-02</leafValues></_>
        <_>
          <internalNodes>
            0 -1 615 -1.6861038748174906e-03</internalNodes>
          <leafValues>
            -3.9048418402671814e-01 9.1854393482208252e-02</leafValues></_>
        <_>
          <internalNodes>
            0 -1 425 -1.9856853410601616e-02</internalNodes>
          <leafValues>
            3.6680644750595093e-01 -9.0736627578735352e-02</leafValues></_>
        <_>
          <internalNodes>
            0 -1 138 2.2774860262870789e-03</internalNodes>
          <leafValues>
            5.8699559420347214e-02 -5.8359080553054810e-01</leafValues></_>
        <_>
          <internalNodes>
            0 -1 324 1.5374368522316217e-03</internalNodes>
          <leafValues>
            -1.2431124597787857e-01 2.9838278889656067e-01</leafValues></_>
        <_>
          <internalNodes>
            0 -1 1112 1.0347478091716766e-03</internalNodes>
          <leafValues>
            7.4314467608928680e-02 -4.6670317649841309e-01</leafValues></_>
        <_>
          <internalNodes>
            0 -1 738 -1.1537160025909543e-03</internalNodes>
          <leafValues>
            3.0351179838180542e-01 -1.2059009820222855e-01</leafValues></_></weakClassifiers></_>
    <!-- stage 2 -->
    <_>
      <maxWeakCount>90</maxWeakCount>
      <stageThreshold>-1.3033174276351929e+00</stageThreshold>
      <weakClassifiers>
        <_>
          <internalNodes>
            0 -1 828 6.1159133911132813e-03</internalNodes>
          <leafValues>
            -3.2827004790306091e-01 5.4782611131668091e-01</leafValues></_>
        <_>
          <internalNodes>
            0 -1 665 -1.6676947474479675e-02</internalNodes>
          <leafValues>
            -8.8997733592987061e-01 1.8124900758266449e-02</leafValues></_>
        <_>
          <internalNodes>
            0 -1 1096 -2.8293225914239883e-03</internalNodes>
          <leafValues>
            -5.3196078538894653e-01 8.5397005081176758e-02</leafValues></_>
        <_>
          <internalNodes>
            0 -1 466 -5.8950763195753098e-03</internalNodes>
          <leafValues>
            4.2709285020828247e-01 -7.5936600565910339e-02</leafValues></_>
        <_>
          <internalNodes>
            0 -1 143 -1.3285106979310513e-03</internalNodes>
          <leafValues>
            -5.5115443468093872e-01 6.7734390497207642e-02</leafValues></_>
        <_>
          <internalNodes>
            0 -1 6 1.2224134989082813e-03</internalNodes>
          <leafValues>
            9.7998268902301788e-02 -3.8476991653442383e-01</leafValues></_>
        <_>
          <internalNodes>
            0 -1 495 -5.0309607759118080e-03</internalNodes>
          <leafValues>
            4.5775157213211060e-01 -7.6650679111480713e-02</leafValues></_>
        <_>
          <internalNodes>
            0 -1 597 -9.7789382562041283e-03</internalNodes>
          <leafValues>
            3.2709622383117676e-01 -1.1311762034893036e-01</leafValues></_>
        <_>
          <internalNodes>
            0 -1 411 1.7056006472557783e-03</internalNodes>
          <leafValues>
            -1.0827426612377167e-01 3.3700478076934814e-01</leafValues></_>
        <_>
          <internalNodes>
            0 -1 961 1.0583003750070930e-03</internalNodes>
          <leafValues>
            1.1314713954925537e-01 -3.3745825290679932e-01</leafValues></_>
        <_>
          <internalNodes>
            0 -1 674 1.5553971752524376e-03</internalNodes>
          <leafValues>
            -1.2172415107488632e-01 2.9185736179351807e-01</leafValues></_>
        <_>
          <internalNodes>
            0 -1 912 -1.3256422244012356e-03</internalNodes>
          <leafValues>
            -3.8604953885078430e-01 9.7838781774044037e-02</leafValues></_>
        <_>
          <internalNodes>
            0 -1 580 4.1286195628345013e-03</internalNodes>
          <leafValues>
            -8.3661489188671112e-02 3.8406533002853394e-01</leafValues></_>
        <_>
          <internalNodes>
            0 -1 516 -1.6642484813928604e-02</internalNodes>
          <leafValues>
            3.2985454797744751e-01 -9.0097576379776001e-02</leafValues></_>
        <_>
          <internalNodes>
            0 -1 796 -5.9208739548921585e-03</internalNodes>
          <leafValues>
            4.3375697731971741e-01 -8.0213017761707306e-02</leafValues></_>
        <_>
          <internalNodes>
            0 -1 1121 -7.5092087499797344e-03</internalNodes>
          <leafValues>
            -5.4903006553649902e-01 5.6863967329263687e-02</leafValues></_>
        <_>
          <internalNodes>
            0 -1 1130 -2.0605968311429024e-03</internalNodes>
          <leafValues>
            -4.5036143064498901e-01 6.2557674944400787e-02</leafValues></_>
        <_>
          <internalNodes>
            0 -1 625 -2.4326678831130266e-03</internalNodes>
          <leafValues>
            3.0239710211753845e-01 -1.0236731171607971e-01</leafValues></_>
        <_>
          <internalNodes>
            0 -1 872 -7.2547970339655876e-03</internalNodes>
          <leafValues>
            -5.5851340293884277e-01 5.4384253919124603e-02</leafValues></_>
        <_>
          <internalNodes>
            0 -1 811 2.9224706813693047e-03</internalNodes>
          <leafValues>
            -8.6486361920833588e-02 3.5203516483306885e-01</leafValues></_>
        <_>
          <internalNodes>
            0 -1 891 -1.8399835098534822e-03</internalNodes>
          <leafValues>
            2.6426658034324646e-01 -1.0201711207628250e-01</leafValues></_>
        <_>
          <internalNodes>
            0 -1 551 -1.3331427471712232e-03</internalNodes>
          <leafValues>
            2.6434570550918579e-01 -1.1692584306001663e-01</leafValues></_>
        <_>
          <internalNodes>
            0 -1 779 -1.2209039181470871e-01</internalNodes>
          <leafValues>
            4.5992895960807800e-01 -6.2991090118885040e-02</leafValues></_>
        <_>
          <internalNodes>
            0 -1 44 -1.2297688424587250e-01</internalNodes>
          <leafValues>
            4.3258878588676453e-01 -6.2465287744998932e-02</leafValues></_>
        <_>
          <internalNodes>
            0 -1 565 -8.1814303994178772e-03</internalNodes>
          <leafValues>
            2.8943541646003723e-01 -1.0226602107286453e-01</leafValues></_>
        <_>
          <internalNodes>
            0 -1 862 -1.6802707687020302e-03</internalNodes>
          <leafValues>
            2.8014427423477173e-01 -1.0314107686281204e-01</leafValues></_>
        <_>
          <internalNodes>
            0 -1 17 -7.3890397325158119e-03</internalNodes>
          <leafValues>
            -3.0633136630058289e-01 9.7001746296882629e-02</leafValues></_>
        <_>
          <internalNodes>
            0 -1 1052 -4.5186979696154594e-03</internalNodes>
          <leafValues>
            3.9552312344312668e-02 -6.5897357463836670e-01</leafValues></_>
        <_>
          <internalNodes>
            0 -1 83 -2.4986621737480164e-01</internalNodes>
          <leafValues>
            -3.3597284555435181e-01 1.0118303447961807e-01</leafValues></_>
        <_>
          <internalNodes>
            0 -1 926 2.7257804758846760e-03</internalNodes>
          <leafValues>
            -7.4179135262966156e-02 3.8591447472572327e-01</leafValues></_>
        <_>
          <internalNodes>
            0 -1 619 -3.2664135098457336e-02</internalNodes>
          <leafValues>
            3.6263766884803772e-01 -7.2685167193412781e-02</leafValues></_>
        <_>
          <internalNodes>
            0 -1 1007 8.6965260561555624e-04</internalNodes>
          <leafValues>
            1.0569348186254501e-01 -2.6844310760498047e-01</leafValues></_>
        <_>
          <internalNodes>
            0 -1 401 -4.0055369026958942e-03</internalNodes>
          <leafValues>
            2.2697784006595612e-01 -1.2593084573745728e-01</leafValues></_>
        <_>
          <internalNodes>
            0 -1 215 5.4850513115525246e-03</internalNodes>
          <leafValues>
            7.1609452366828918e-02 -4.6859771013259888e-01</leafValues></_>
        <_>
          <internalNodes>
            0 -1 1129 4.4674941455014050e-04</internalNodes>
          <leafValues>
            7.3229938745498657e-02 -3.2980698347091675e-01</leafValues></_>
        <_>
          <internalNodes>
            0 -1 487 5.1982654258608818e-04</internalNodes>
          <leafValues>
            -9.4416566193103790e-02 2.9369822144508362e-01</leafValues></_>
        <_>
          <internalNodes>
            0 -1 204 1.2832747306674719e-03</internalNodes>
          <leafValues>
            6.9450207054615021e-02 -4.0746518969535828e-01</leafValues></_>
        <_>
          <internalNodes>
            0 -1 43 -5.8017238974571228e-02</internalNodes>
          <leafValues>
            -4.7532987594604492e-01 5.1221556961536407e-02</leafValues></_>
        <_>
          <internalNodes>
            0 -1 137 -1.5591768315061927e-03</internalNodes>
          <leafValues>
            -7.6739513874053955e-01 3.3003315329551697e-02</leafValues></_>
        <_>
          <internalNodes>
            0 -1 252 -8.4875095635652542e-03</internalNodes>
          <leafValues>
            2.5185653567314148e-01 -1.0411354154348373e-01</leafValues></_>
        <_>
          <internalNodes>
            0 -1 723 1.5161597402766347e-03</internalNodes>
          <leafValues>
            7.3862478137016296e-02 -3.1815868616104126e-01</leafValues></_>
        <_>
          <internalNodes>
            0 -1 780 -2.3140867054462433e-01</internalNodes>
          <leafValues>
            -7.0423632860183716e-01 3.3321708440780640e-02</leafValues></_>
        <_>
          <internalNodes>
            0 -1 212 1.4041083864867687e-02</internalNodes>
          <leafValues>
            3.5249244421720505e-02 -6.2339591979980469e-01</leafValues></_>
        <_>
          <internalNodes>
            0 -1 710 -3.6410097964107990e-03</internalNodes>
          <leafValues>
            2.9756474494934082e-01 -9.4483479857444763e-02</leafValues></_>
        <_>
          <internalNodes>
            0 -1 166 1.6098004579544067e-01</internalNodes>
          <leafValues>
            -5.1899377256631851e-02 4.7930234670639038e-01</leafValues></_>
        <_>
          <internalNodes>
            0 -1 577 -2.2043150383979082e-03</internalNodes>
          <leafValues>
            3.4593215584754944e-01 -7.8022584319114685e-02</leafValues></_>
        <_>
          <internalNodes>
            0 -1 394 -5.1133702509105206e-03</internalNodes>
          <leafValues>
            3.2890877127647400e-01 -7.7819094061851501e-02</leafValues></_>
        <_>
          <internalNodes>
            0 -1 65 -1.7289245733991265e-03</internalNodes>
          <leafValues>
            -3.1241664290428162e-01 8.8341251015663147e-02</leafValues></_>
        <_>
          <internalNodes>
            0 -1 1135 -1.1555176228284836e-02</internalNodes>
          <leafValues>
            4.5023746788501740e-02 -5.6964713335037231e-01</leafValues></_>
        <_>
          <internalNodes>
            0 -1 837 -1.2873146682977676e-02</internalNodes>
          <leafValues>
            -6.8794772028923035e-02 4.6438097953796387e-01</leafValues></_>
        <_>
          <internalNodes>
            0 -1 233 -5.6266315281391144e-02</internalNodes>
          <leafValues>
            3.8757514208555222e-02 -7.7204966545104980e-01</leafValues></_>
        <_>
          <internalNodes>
            0 -1 731 3.8591888733208179e-03</internalNodes>
          <leafValues>
            -1.0594309866428375e-01 2.5692394375801086e-01</leafValues></_>
        <_>
          <internalNodes>
            0 -1 162 -5.3534004837274551e-03</internalNodes>
          <leafValues>
            2.0491972565650940e-01 -1.2944152951240540e-01</leafValues></_>
        <_>
          <internalNodes>
            0 -1 1108 2.6624538004398346e-03</internalNodes>
          <leafValues>
            5.3592439740896225e-02 -4.6905463933944702e-01</leafValues></_>
        <_>
          <internalNodes>
            0 -1 488 3.1084828078746796e-03</internalNodes>
          <leafValues>
            -8.6950778961181641e-02 2.8881260752677917e-01</leafValues></_>
        <_>
          <internalNodes>
            0 -1 370 -1.9142031669616699e-02</internalNodes>
          <leafValues>
            5.7547283172607422e-01 -4.5100834220647812e-02</leafValues></_>
        <_>
          <internalNodes>
            0 -1 289 -1.4738252386450768e-02</internalNodes>
          <leafValues>
            -7.5423222780227661e-01 3.9110954850912094e-02</leafValues></_>
        <_>
          <internalNodes>
            0 -1 236 -1.2413108721375465e-02</internalNodes>
          <leafValues>
            2.9796016216278076e-01 -9.3804053962230682e-02</leafValues></_>
        <_>
          <internalNodes>
            0 -1 574 5.9780669398605824e-03</internalNodes>
          <leafValues>
            -6.5785214304924011e-02 3.6839824914932251e-01</leafValues></_>
        <_>
          <internalNodes>
            0 -1 1098 -2.4271570146083832e-03</internalNodes>
          <leafValues>
            -4.7086980938911438e-01 5.7325158268213272e-02</leafValues></_>
        <_>
          <internalNodes>
            0 -1 656 2.0874727517366409e-02</internalNodes>
          <leafValues>
            -7.9851485788822174e-02 3.3398845791816711e-01</leafValues></_>
        <_>
          <internalNodes>
            0 -1 478 -9.2041399329900742e-03</internalNodes>
          <leafValues>
            3.8116991519927979e-01 -7.0269659161567688e-02</leafValues></_>
        <_>
          <internalNodes>
            0 -1 304 1.9870474934577942e-02</internalNodes>
          <leafValues>
            -4.2325917631387711e-02 5.6096547842025757e-01</leafValues></_>
        <_>
          <internalNodes>
            0 -1 445 8.4065183997154236e-02</internalNodes>
          <leafValues>
            6.5484166145324707e-02 -4.4457894563674927e-01</leafValues></_>
        <_>
          <internalNodes>
            0 -1 685 1.0415658354759216e-02</internalNodes>
          <leafValues>
            -8.1644728779792786e-02 3.3907619118690491e-01</leafValues></_>
        <_>
          <internalNodes>
            0 -1 723 -2.0717638544738293e-03</internalNodes>
          <leafValues>
            -3.6352160573005676e-01 7.7394917607307434e-02</leafValues></_>
        <_>
          <internalNodes>
            0 -1 1 -5.2514497656375170e-04</internalNodes>
          <leafValues>
            -3.0469444394111633e-01 8.3322040736675262e-02</leafValues></_>
        <_>
          <internalNodes>
            0 -1 4 9.3643786385655403e-04</internalNodes>
          <leafValues>
            1.0967314243316650e-01 -2.5995457172393799e-01</leafValues></_>
        <_>
          <internalNodes>
            0 -1 357 -7.7470252290368080e-04</internalNodes>
          <leafValues>
            3.1685617566108704e-01 -9.1359511017799377e-02</leafValues></_>
        <_>
          <internalNodes>
            0 -1 901 1.7088323831558228e-02</internalNodes>
          <leafValues>
            -7.3188856244087219e-02 3.5142275691032410e-01</leafValues></_>
        <_>
          <internalNodes>
            0 -1 1143 4.4077762868255377e-04</internalNodes>
          <leafValues>
            9.2125348746776581e-02 -3.0359122157096863e-01</leafValues></_>
        <_>
          <internalNodes>
            0 -1 928 5.3910110145807266e-03</internalNodes>
          <leafValues>
            -4.2674664407968521e-02 7.3072290420532227e-01</leafValues></_>
        <_>
          <internalNodes>
            0 -1 1038 -1.9872784614562988e-03</internalNodes>
          <leafValues>
            -8.5422474145889282e-01 3.9433069527149200e-02</leafValues></_>
        <_>
          <internalNodes>
            0 -1 506 -1.2297451496124268e-02</internalNodes>
          <leafValues>
            4.8721581697463989e-01 -6.9966152310371399e-02</leafValues></_>
        <_>
          <internalNodes>
            0 -1 1034 2.7277163462713361e-04</internalNodes>
          <leafValues>
            1.1397282034158707e-01 -2.7009195089340210e-01</leafValues></_>
        <_>
          <internalNodes>
            0 -1 594 -3.2593913376331329e-02</internalNodes>
          <leafValues>
            5.4265689849853516e-01 -5.3023893386125565e-02</leafValues></_>
        <_>
          <internalNodes>
            0 -1 799 -1.0941581567749381e-03</internalNodes>
          <leafValues>
            1.6047585010528564e-01 -1.6150657832622528e-01</leafValues></_>
        <_>
          <internalNodes>
            0 -1 77 2.7087815105915070e-03</internalNodes>
          <leafValues>
            7.9882815480232239e-02 -3.1306093931198120e-01</leafValues></_>
        <_>
          <internalNodes>
            0 -1 92 -7.5922277756035328e-04</internalNodes>
          <leafValues>
            -2.8720006346702576e-01 9.6161395311355591e-02</leafValues></_>
        <_>
          <internalNodes>
            0 -1 1089 -1.8742118030786514e-02</internalNodes>
          <leafValues>
            -4.3598753213882446e-01 6.0962673276662827e-02</leafValues></_>
        <_>
          <internalNodes>
            0 -1 503 1.6365126939490438e-03</internalNodes>
          <leafValues>
            -8.0898635089397430e-02 3.3730614185333252e-01</leafValues></_>
        <_>
          <internalNodes>
            0 -1 1086 -2.0900051458738744e-04</internalNodes>
          <leafValues>
            -2.5740110874176025e-01 1.0476077347993851e-01</leafValues></_>
        <_>
          <internalNodes>
            0 -1 413 -5.2866153419017792e-03</internalNodes>
          <leafValues>
            2.4809019267559052e-01 -1.1236286908388138e-01</leafValues></_>
        <_>
          <internalNodes>
            0 -1 39 2.6949142920784652e-04</internalNodes>
          <leafValues>
            9.5244072377681732e-02 -2.6549693942070007e-01</leafValues></_>
        <_>
          <internalNodes>
            0 -1 752 1.7705906182527542e-02</internalNodes>
          <leafValues>
            -3.7500284612178802e-02 6.7759191989898682e-01</leafValues></_>
        <_>
          <internalNodes>
            0 -1 159 -1.7545457929372787e-02</internalNodes>
          <leafValues>
            1.9787529110908508e-01 -1.2089961767196655e-01</leafValues></_>
        <_>
          <internalNodes>
            0 -1 833 3.3679273910820484e-03</internalNodes>
          <leafValues>
            -9.7869232296943665e-02 2.6777145266532898e-01</leafValues></_>
        <_>
          <internalNodes>
            0 -1 1083 -5.5809963494539261e-02</internalNodes>
          <leafValues>
            -6.2188273668289185e-01 4.3350607156753540e-02</leafValues></_>
        <_>
          <internalNodes>
            0 -1 321 -1.3259293511509895e-02</internalNodes>
          <leafValues>
            5.9471372514963150e-02 -4.2715227603912354e-01</leafValues></_>
        <_>
          <internalNodes>
            0 -1 469 -3.2446481054648757e-04</internalNodes>
          <leafValues>
            2.1163079142570496e-01 -1.2221729010343552e-01</leafValues></_></weakClassifiers></_>
    <!-- stage 3 -->
    <_>
      <maxWeakCount>86</maxWeakCount>
      <stageThreshold>-1.1619427204132080e+00</stageThreshold>
      <weakClassifiers>
        <_>
          <internalNodes>
            0 -1 299 -5.2069133520126343e-01</internalNodes>
          <leafValues>
            -5.0577777624130249e-01 -1.0735294222831726e-01</leafValues></_>
        <_>
          <internalNodes>
            0 -1 581 6.6070375032722950e-04</internalNodes>
          <leafValues>
            -1.3178572058677673e-01 3.1752827763557434e-01</leafValues></_>
        <_>
          <internalNodes>
            0 -1 393 1.3402910903096199e-02</internalNodes>
          <leafValues>
            -7.1665316820144653e-02 5.1731705665588379e-01</leafValues></_>
        <_>
          <internalNodes>
            0 -1 995 1.9098808988928795e-02</internalNodes>
          <leafValues>
            -1.1534951627254486e-01 3.1337776780128479e-01</leafValues></_>
        <_>
          <internalNodes>
            0 -1 754 2.4009800981730223e-03</internalNodes>
          <leafValues>
            -8.9909084141254425e-02 3.9825561642646790e-01</leafValues></_>
        <_>
          <internalNodes>
            0 -1 831 8.9112465502694249e-04</internalNodes>
          <leafValues>
            -8.9897952973842621e-02 3.8186970353126526e-01</leafValues></_>
        <_>
          <internalNodes>
            0 -1 477 -1.5799988061189651e-02</internalNodes>
          <leafValues>
            2.2003453969955444e-01 -1.4306014776229858e-01</leafValues></_>
        <_>
          <internalNodes>
            0 -1 968 -1.8283447716385126e-03</internalNodes>
          <leafValues>
            -3.2486736774444580e-01 1.1773724853992462e-01</leafValues></_>
        <_>
          <internalNodes>
            0 -1 850 1.3140061870217323e-02</internalNodes>
          <leafValues>
            -1.2950456142425537e-01 2.5484424829483032e-01</leafValues></_>
        <_>
          <internalNodes>
            0 -1 451 -3.9092302322387695e-03</internalNodes>
          <leafValues>
            3.4967726469039917e-01 -7.4391506612300873e-02</leafValues></_>
        <_>
          <internalNodes>
            0 -1 292 1.7170184291899204e-03</internalNodes>
          <leafValues>
            -1.3004374504089355e-01 2.5656807422637939e-01</leafValues></_>
        <_>
          <internalNodes>
            0 -1 558 2.6617534458637238e-03</internalNodes>
          <leafValues>
            -1.2993648648262024e-01 2.2953470051288605e-01</leafValues></_>
        <_>
          <internalNodes>
            0 -1 141 2.0814090967178345e-02</internalNodes>
          <leafValues>
            5.9025432914495468e-02 -5.7994842529296875e-01</leafValues></_>
        <_>
          <internalNodes>
            0 -1 507 4.7349441796541214e-02</internalNodes>
          <leafValues>
            -1.1270414292812347e-01 2.7929207682609558e-01</leafValues></_>
        <_>
          <internalNodes>
            0 -1 482 2.0212303847074509e-02</internalNodes>
          <leafValues>
            -1.0580520331859589e-01 2.5918138027191162e-01</leafValues></_>
        <_>
          <internalNodes>
            0 -1 539 -8.5410485044121742e-03</internalNodes>
          <leafValues>
            -2.5230646133422852e-01 1.1203651130199432e-01</leafValues></_>
        <_>
          <internalNodes>
            0 -1 762 -5.0389871466904879e-04</internalNodes>
          <leafValues>
            2.6117023825645447e-01 -1.1675675958395004e-01</leafValues></_>
        <_>
          <internalNodes>
            0 -1 66 -4.6136724948883057e-01</internalNodes>
          <leafValues>
            -9.3776810169219971e-01 4.5610345900058746e-02</leafValues></_>
        <_>
          <internalNodes>
            0 -1 499 -3.9552012458443642e-03</internalNodes>
          <leafValues>
            4.8843577504158020e-01 -7.7547244727611542e-02</leafValues></_>
        <_>
          <internalNodes>
            0 -1 10 -3.7863298784941435e-03</internalNodes>
          <leafValues>
            -4.5855864882469177e-01 6.8464227020740509e-02</leafValues></_>
        <_>
          <internalNodes>
            0 -1 944 -8.9824404567480087e-03</internalNodes>
          <leafValues>
            2.6745957136154175e-01 -1.0621397942304611e-01</leafValues></_>
        <_>
          <internalNodes>
            0 -1 614 -1.0274112224578857e-02</internalNodes>
          <leafValues>
            3.6314904689788818e-02 -7.4288004636764526e-01</leafValues></_>
        <_>
          <internalNodes>
            0 -1 653 1.6823254525661469e-02</internalNodes>
          <leafValues>
            -9.6363976597785950e-02 2.8942263126373291e-01</leafValues></_>
        <_>
          <internalNodes>
            0 -1 790 -1.1290853843092918e-02</internalNodes>
          <leafValues>
            2.1280495822429657e-01 -1.2088767439126968e-01</leafValues></_>
        <_>
          <internalNodes>
            0 -1 683 -5.9815766289830208e-03</internalNodes>
          <leafValues>
            2.8497436642646790e-01 -8.8282376527786255e-02</leafValues></_>
        <_>
          <internalNodes>
            0 -1 684 2.7565599884837866e-03</internalNodes>
          <leafValues>
            -1.1582051962614059e-01 2.6963526010513306e-01</leafValues></_>
        <_>
          <internalNodes>
            0 -1 892 1.2549536768347025e-03</internalNodes>
          <leafValues>
            -5.8589778840541840e-02 4.0550199151039124e-01</leafValues></_>
        <_>
          <internalNodes>
            0 -1 63 1.5447382628917694e-01</internalNodes>
          <leafValues>
            4.8309992998838425e-02 -6.0815900564193726e-01</leafValues></_>
        <_>
          <internalNodes>
            0 -1 813 -7.1975486353039742e-03</internalNodes>
          <leafValues>
            -5.2031475305557251e-01 4.0976807475090027e-02</leafValues></_>
        <_>
          <internalNodes>
            0 -1 997 -3.9531467482447624e-03</internalNodes>
          <leafValues>
            3.1733402609825134e-01 -7.7375471591949463e-02</leafValues></_>
        <_>
          <internalNodes>
            0 -1 877 1.1645995080471039e-02</internalNodes>
          <leafValues>
            -1.1311762779951096e-01 2.1487881243228912e-01</leafValues></_>
        <_>
          <internalNodes>
            0 -1 822 -5.1597811281681061e-02</internalNodes>
          <leafValues>
            3.1942451000213623e-01 -8.4749855101108551e-02</leafValues></_>
        <_>
          <internalNodes>
            0 -1 529 8.8185060303658247e-04</internalNodes>
          <leafValues>
            -7.1144610643386841e-02 3.3782225847244263e-01</leafValues></_>
        <_>
          <internalNodes>
            0 -1 866 -1.9825555384159088e-02</internalNodes>
          <leafValues>
            -1.8646979331970215e-01 1.3110642135143280e-01</leafValues></_>
        <_>
          <internalNodes>
            0 -1 281 9.2058926820755005e-02</internalNodes>
          <leafValues>
            -9.0054690837860107e-02 3.1502291560173035e-01</leafValues></_>
        <_>
          <internalNodes>
            0 -1 327 1.4022049494087696e-02</internalNodes>
          <leafValues>
            5.0979223102331161e-02 -5.9272044897079468e-01</leafValues></_>
        <_>
          <internalNodes>
            0 -1 147 -1.3477530330419540e-02</internalNodes>
          <leafValues>
            -4.2406269907951355e-01 5.6556142866611481e-02</leafValues></_>
        <_>
          <internalNodes>
            0 -1 227 1.7127852188423276e-03</internalNodes>
          <leafValues>
            -8.2427389919757843e-02 3.3784341812133789e-01</leafValues></_>
        <_>
          <internalNodes>
            0 -1 909 -3.2524433918297291e-03</internalNodes>
          <leafValues>
            3.1863436102867126e-01 -7.6674655079841614e-02</leafValues></_>
        <_>
          <internalNodes>
            0 -1 1133 5.4603611351922154e-04</internalNodes>
          <leafValues>
            9.3411587178707123e-02 -2.5293049216270447e-01</leafValues></_>
        <_>
          <internalNodes>
            0 -1 391 5.7932827621698380e-03</internalNodes>
          <leafValues>
            -7.1336694061756134e-02 3.5204908251762390e-01</leafValues></_>
        <_>
          <internalNodes>
            0 -1 423 -1.8471637740731239e-02</internalNodes>
          <leafValues>
            2.3865714669227600e-01 -1.0157509148120880e-01</leafValues></_>
        <_>
          <internalNodes>
            0 -1 496 3.0734562315046787e-03</internalNodes>
          <leafValues>
            -1.1079099774360657e-01 2.3446851968765259e-01</leafValues></_>
        <_>
          <internalNodes>
            0 -1 284 -9.7784306854009628e-04</internalNodes>
          <leafValues>
            3.9639002084732056e-01 -5.4827254265546799e-02</leafValues></_>
        <_>
          <internalNodes>
            0 -1 1127 1.9464828073978424e-04</internalNodes>
          <leafValues>
            8.9908294379711151e-02 -2.4701979756355286e-01</leafValues></_>
        <_>
          <internalNodes>
            0 -1 787 -6.4344615675508976e-03</internalNodes>
          <leafValues>
            4.2184492945671082e-01 -5.7944841682910919e-02</leafValues></_>
        <_>
          <internalNodes>
            0 -1 532 -4.0009021759033203e-03</internalNodes>
          <leafValues>
            2.7841842174530029e-01 -8.4870152175426483e-02</leafValues></_>
        <_>
          <internalNodes>
            0 -1 1008 -3.7285757064819336e-01</internalNodes>
          <leafValues>
            -9.8709958791732788e-01 2.3523533716797829e-02</leafValues></_>
        <_>
          <internalNodes>
            0 -1 689 -4.0466900100000203e-04</internalNodes>
          <leafValues>
            1.8466845154762268e-01 -1.2795549631118774e-01</leafValues></_>
        <_>
          <internalNodes>
            0 -1 290 7.0095793344080448e-03</internalNodes>
          <leafValues>
            -7.8698046505451202e-02 3.1355994939804077e-01</leafValues></_>
        <_>
          <internalNodes>
            0 -1 49 3.1476512958761305e-05</internalNodes>
          <leafValues>
            -1.3426230847835541e-01 1.8368358910083771e-01</leafValues></_>
        <_>
          <internalNodes>
            0 -1 982 1.2927694246172905e-02</internalNodes>
          <leafValues>
            -7.3831684887409210e-02 3.2361024618148804e-01</leafValues></_>
        <_>
          <internalNodes>
            0 -1 1002 -1.6225660219788551e-03</internalNodes>
          <leafValues>
            -5.1616179943084717e-01 5.0416190177202225e-02</leafValues></_>
        <_>
          <internalNodes>
            0 -1 367 1.8490154761821032e-03</internalNodes>
          <leafValues>
            -9.3558646738529205e-02 2.6307794451713562e-01</leafValues></_>
        <_>
          <internalNodes>
            0 -1 998 -1.5214171726256609e-03</internalNodes>
          <leafValues>
            5.8910304307937622e-01 -4.1462093591690063e-02</leafValues></_>
        <_>
          <internalNodes>
            0 -1 1 4.2228342499583960e-04</internalNodes>
          <leafValues>
            8.7862201035022736e-02 -2.8671559691429138e-01</leafValues></_>
        <_>
          <internalNodes>
            0 -1 350 -1.2988278642296791e-02</internalNodes>
          <leafValues>
            2.9310591518878937e-02 -8.2687985897064209e-01</leafValues></_>
        <_>
          <internalNodes>
            0 -1 351 -2.6254463009536266e-03</internalNodes>
          <leafValues>
            3.5953822731971741e-01 -7.5346514582633972e-02</leafValues></_>
        <_>
          <internalNodes>
            0 -1 817 2.7743054553866386e-02</internalNodes>
          <leafValues>
            -2.9392106458544731e-02 7.1860855817794800e-01</leafValues></_>
        <_>
          <internalNodes>
            0 -1 534 1.0926795657724142e-03</internalNodes>
          <leafValues>
            -6.4974173903465271e-02 3.3638089895248413e-01</leafValues></_>
        <_>
          <internalNodes>
            0 -1 1104 -2.9456970514729619e-04</internalNodes>
          <leafValues>
            -2.7323830127716064e-01 9.2081524431705475e-02</leafValues></_>
        <_>
          <internalNodes>
            0 -1 302 -1.0467089712619781e-01</internalNodes>
          <leafValues>
            -4.7397073358297348e-02 5.2615326642990112e-01</leafValues></_>
        <_>
          <internalNodes>
            0 -1 902 -4.4657364487648010e-03</internalNodes>
          <leafValues>
            3.1024801731109619e-01 -8.8899180293083191e-02</leafValues></_>
        <_>
          <internalNodes>
            0 -1 718 2.4254708550870419e-03</internalNodes>
          <leafValues>
            -1.5474651753902435e-01 1.4838336408138275e-01</leafValues></_>
        <_>
          <internalNodes>
            0 -1 729 -5.6112427264451981e-02</internalNodes>
          <leafValues>
            1.9708122313022614e-01 -1.1800405383110046e-01</leafValues></_>
        <_>
          <internalNodes>
            0 -1 769 -9.2145040631294250e-02</internalNodes>
          <leafValues>
            -6.5073388814926147e-01 4.3494287878274918e-02</leafValues></_>
        <_>
          <internalNodes>
            0 -1 817 -4.0540522895753384e-03</internalNodes>
          <leafValues>
            2.3325020074844360e-01 -1.0510800778865814e-01</leafValues></_>
        <_>
          <internalNodes>
            0 -1 906 -2.4151500314474106e-02</internalNodes>
          <leafValues>
            2.7952577918767929e-02 -9.1478884220123291e-01</leafValues></_>
        <_>
          <internalNodes>
            0 -1 719 -2.3529531899839640e-03</internalNodes>
          <leafValues>
            4.2474025487899780e-01 -6.0560125857591629e-02</leafValues></_>
        <_>
          <internalNodes>
            0 -1 776 -1.4100314676761627e-01</internalNodes>
          <leafValues>
            3.2568019628524780e-01 -7.0498071610927582e-02</leafValues></_>
        <_>
          <internalNodes>
            0 -1 598 -4.0934905409812927e-02</internalNodes>
          <leafValues>
            4.0870007872581482e-01 -5.6553121656179428e-02</leafValues></_>
        <_>
          <internalNodes>
            0 -1 1097 5.6426748633384705e-03</internalNodes>
          <leafValues>
            7.4627690017223358e-02 -3.1852570176124573e-01</leafValues></_>
        <_>
          <internalNodes>
            0 -1 409 8.1934232730418444e-04</internalNodes>
          <leafValues>
            -7.9160608351230621e-02 3.0028790235519409e-01</leafValues></_>
        <_>
          <internalNodes>
            0 -1 667 4.2476220987737179e-03</internalNodes>
          <leafValues>
            6.2681093811988831e-02 -3.5051214694976807e-01</leafValues></_>
        <_>
          <internalNodes>
            0 -1 1164 -1.7617014236748219e-03</internalNodes>
          <leafValues>
            -6.0019290447235107e-01 3.4165706485509872e-02</leafValues></_>
        <_>
          <internalNodes>
            0 -1 679 -4.6777566894888878e-03</internalNodes>
          <leafValues>
            3.8022154569625854e-01 -6.0605198144912720e-02</leafValues></_>
        <_>
          <internalNodes>
            0 -1 93 -2.1701748482882977e-03</internalNodes>
          <leafValues>
            -3.5437518358230591e-01 6.5480947494506836e-02</leafValues></_>
        <_>
          <internalNodes>
            0 -1 439 -1.8953921971842647e-03</internalNodes>
          <leafValues>
            2.6904180645942688e-01 -9.2839173972606659e-02</leafValues></_>
        <_>
          <internalNodes>
            0 -1 1041 -1.6211905749514699e-03</internalNodes>
          <leafValues>
            5.2299368381500244e-01 -4.3457590043544769e-02</leafValues></_>
        <_>
          <internalNodes>
            0 -1 563 -5.5903987959027290e-03</internalNodes>
          <leafValues>
            2.5874924659729004e-01 -9.0248897671699524e-02</leafValues></_>
        <_>
          <internalNodes>
            0 -1 690 2.2618924267590046e-03</internalNodes>
          <leafValues>
            1.1341536045074463e-01 -2.2827512025833130e-01</leafValues></_>
        <_>
          <internalNodes>
            0 -1 804 -5.4448586888611317e-04</internalNodes>
          <leafValues>
            1.8737341463565826e-01 -1.3898184895515442e-01</leafValues></_>
        <_>
          <internalNodes>
            0 -1 814 -2.0438048522919416e-04</internalNodes>
          <leafValues>
            -2.3997355997562408e-01 9.6365869045257568e-02</leafValues></_>
        <_>
          <internalNodes>
            0 -1 572 -5.1873177289962769e-04</internalNodes>
          <leafValues>
            1.9984199106693268e-01 -1.1612281948328018e-01</leafValues></_>
        <_>
          <internalNodes>
            0 -1 633 -2.3158561438322067e-02</internalNodes>
          <leafValues>
            2.4229972064495087e-01 -1.0526069998741150e-01</leafValues></_>
        <_>
          <internalNodes>
            0 -1 287 -3.3524822443723679e-02</internalNodes>
          <leafValues>
            -2.3371829092502594e-01 1.3007386028766632e-01</leafValues></_></weakClassifiers></_>
    <!-- stage 4 -->
    <_>
      <maxWeakCount>100</maxWeakCount>
      <stageThreshold>-1.8399051427841187e+00</stageThreshold>
      <weakClassifiers>
        <_>
          <internalNodes>
            0 -1 483 9.7695160657167435e-03</internalNodes>
          <leafValues>
            -3.5364726185798645e-01 1.5987460315227509e-01</leafValues></_>
        <_>
          <internalNodes>
            0 -1 144 -2.5872167199850082e-02</internalNodes>
          <leafValues>
            -5.3688299655914307e-01 4.6430326998233795e-02</leafValues></_>
        <_>
          <internalNodes>
            0 -1 144 -2.5698930025100708e-02</internalNodes>
          <leafValues>
            1. -2.9556106310337782e-03</leafValues></_>
        <_>
          <internalNodes>
            0 -1 144 -2.5553632527589798e-02</internalNodes>
          <leafValues>
            -8.0865365266799927e-01 1.0528962593525648e-03</leafValues></_>
        <_>
          <internalNodes>
            0 -1 756 3.2401559874415398e-03</internalNodes>
          <leafValues>
            -7.1525722742080688e-02 3.0314072966575623e-01</leafValues></_>
        <_>
          <internalNodes>
            0 -1 376 -5.7855173945426941e-02</internalNodes>
          <leafValues>
            -4.7656616568565369e-01 4.4263619929552078e-02</leafValues></_>
        <_>
          <internalNodes>
            0 -1 864 -2.8106444515287876e-03</internalNodes>
          <leafValues>
            2.1366700530052185e-01 -1.2613140046596527e-01</leafValues></_>
        <_>
          <internalNodes>
            0 -1 1042 2.0658532157540321e-03</internalNodes>
          <leafValues>
            -9.9428080022335052e-02 2.8430369496345520e-01</leafValues></_>
        <_>
          <internalNodes>
            0 -1 1046 -4.6461613965220749e-04</internalNodes>
          <leafValues>
            3.4247061610221863e-01 -7.5804010033607483e-02</leafValues></_>
        <_>
          <internalNodes>
            0 -1 969 -4.2347405105829239e-03</internalNodes>
          <leafValues>
            -3.4044793248176575e-01 6.1746411025524139e-02</leafValues></_>
        <_>
          <internalNodes>
            0 -1 448 -1.0206177830696106e-01</internalNodes>
          <leafValues>
            2.5027477741241455e-01 -1.0223741829395294e-01</leafValues></_>
        <_>
          <internalNodes>
            0 -1 492 -2.9221475124359131e-03</internalNodes>
          <leafValues>
            2.8260979056358337e-01 -9.0868391096591949e-02</leafValues></_>
        <_>
          <internalNodes>
            0 -1 716 -5.7650606322567910e-05</internalNodes>
          <leafValues>
            1.7759843170642853e-01 -1.3325199484825134e-01</leafValues></_>
        <_>
          <internalNodes>
            0 -1 134 4.9318871460855007e-03</internalNodes>
          <leafValues>
            6.1323691159486771e-02 -3.7321516871452332e-01</leafValues></_>
        <_>
          <internalNodes>
            0 -1 741 4.5317956246435642e-03</internalNodes>
          <leafValues>
            -1.0214368999004364e-01 2.2775061428546906e-01</leafValues></_>
        <_>
          <internalNodes>
            0 -1 265 8.1514625344425440e-04</internalNodes>
          <leafValues>
            5.3547259420156479e-02 -4.4078576564788818e-01</leafValues></_>
        <_>
          <internalNodes>
            0 -1 389 -5.5336295627057552e-03</internalNodes>
          <leafValues>
            3.9171862602233887e-01 -6.7650400102138519e-02</leafValues></_>
        <_>
          <internalNodes>
            0 -1 979 -4.3618478230200708e-04</internalNodes>
          <leafValues>
            2.4825310707092285e-01 -8.5306838154792786e-02</leafValues></_>
        <_>
          <internalNodes>
            0 -1 1099 -6.2842695042490959e-03</internalNodes>
          <leafValues>
            4.2764045298099518e-02 -4.9328273534774780e-01</leafValues></_>
        <_>
          <internalNodes>
            0 -1 846 -2.2413685917854309e-02</internalNodes>
          <leafValues>
            -4.8057038336992264e-02 4.9265179038047791e-01</leafValues></_>
        <_>
          <internalNodes>
            0 -1 851 9.7764115780591965e-03</internalNodes>
          <leafValues>
            -6.1248771846294403e-02 3.3496376872062683e-01</leafValues></_>
        <_>
          <internalNodes>
            0 -1 1072 2.6986617594957352e-03</internalNodes>
          <leafValues>
            -1.0637731105089188e-01 1.9642493128776550e-01</leafValues></_>
        <_>
          <internalNodes>
            0 -1 687 -1.5404082834720612e-01</internalNodes>
          <leafValues>
            3.3384710550308228e-01 -5.8455359190702438e-02</leafValues></_>
        <_>
          <internalNodes>
            0 -1 234 -7.2540938854217529e-03</internalNodes>
          <leafValues>
            2.1750186383724213e-01 -9.9154889583587646e-02</leafValues></_>
        <_>
          <internalNodes>
            0 -1 427 -5.2553331479430199e-03</internalNodes>
          <leafValues>
            1.4515453577041626e-01 -1.7232118546962738e-01</leafValues></_>
        <_>
          <internalNodes>
            0 -1 717 -1.2174360454082489e-03</internalNodes>
          <leafValues>
            3.2647013664245605e-01 -7.2891809046268463e-02</leafValues></_>
        <_>
          <internalNodes>
            0 -1 873 -3.4148007398471236e-04</internalNodes>
          <leafValues>
            -2.7073347568511963e-01 7.5513429939746857e-02</leafValues></_>
        <_>
          <internalNodes>
            0 -1 895 1.4345468953251839e-03</internalNodes>
          <leafValues>
            -9.6177116036415100e-02 2.1847605705261230e-01</leafValues></_>
        <_>
          <internalNodes>
            0 -1 844 9.4246736261993647e-04</internalNodes>
          <leafValues>
            -9.0877421200275421e-02 2.4234211444854736e-01</leafValues></_>
        <_>
          <internalNodes>
            0 -1 567 -8.6683481931686401e-03</internalNodes>
          <leafValues>
            2.3019932210445404e-01 -9.1740474104881287e-02</leafValues></_>
        <_>
          <internalNodes>
            0 -1 673 1.2261664960533381e-03</internalNodes>
          <leafValues>
            -1.0766476392745972e-01 2.3782373964786530e-01</leafValues></_>
        <_>
          <internalNodes>
            0 -1 1150 -1.0832345578819513e-03</internalNodes>
          <leafValues>
            -3.9294326305389404e-01 6.0993414372205734e-02</leafValues></_>
        <_>
          <internalNodes>
            0 -1 216 -4.1869031265377998e-03</internalNodes>
          <leafValues>
            -2.8492918610572815e-01 6.6941209137439728e-02</leafValues></_>
        <_>
          <internalNodes>
            0 -1 337 -3.1774926185607910e-01</internalNodes>
          <leafValues>
            2.6604373008012772e-02 -7.1997737884521484e-01</leafValues></_>
        <_>
          <internalNodes>
            0 -1 27 6.4801871776580811e-02</internalNodes>
          <leafValues>
            2.0541945472359657e-02 -7.5658994913101196e-01</leafValues></_>
        <_>
          <internalNodes>
            0 -1 560 -2.9268648475408554e-02</internalNodes>
          <leafValues>
            -5.7460117340087891e-01 3.1337227672338486e-02</leafValues></_>
        <_>
          <internalNodes>
            0 -1 386 -5.3236237727105618e-03</internalNodes>
          <leafValues>
            3.0589219927787781e-01 -7.3074951767921448e-02</leafValues></_>
        <_>
          <internalNodes>
            0 -1 328 1.3403726741671562e-02</internalNodes>
          <leafValues>
            -1.3154566287994385e-01 1.8698558211326599e-01</leafValues></_>
        <_>
          <internalNodes>
            0 -1 404 -1.5811214325367473e-05</internalNodes>
          <leafValues>
            1.6375851631164551e-01 -1.3160921633243561e-01</leafValues></_>
        <_>
          <internalNodes>
            0 -1 992 4.2282342910766602e-02</internalNodes>
          <leafValues>
            3.0879709869623184e-02 -6.0604232549667358e-01</leafValues></_>
        <_>
          <internalNodes>
            0 -1 122 4.5703491196036339e-03</internalNodes>
          <leafValues>
            -9.2395618557929993e-02 2.2784467041492462e-01</leafValues></_>
        <_>
          <internalNodes>
            0 -1 491 -7.4937678873538971e-02</internalNodes>
          <leafValues>
            5.0098621845245361e-01 -3.8244482129812241e-02</leafValues></_>
        <_>
          <internalNodes>
            0 -1 760 1.2171949259936810e-02</internalNodes>
          <leafValues>
            -5.8024622499942780e-02 3.6923328042030334e-01</leafValues></_>
        <_>
          <internalNodes>
            0 -1 430 -2.5745849125087261e-03</internalNodes>
          <leafValues>
            2.4724005162715912e-01 -8.5263714194297791e-02</leafValues></_>
        <_>
          <internalNodes>
            0 -1 264 2.6927782222628593e-02</internalNodes>
          <leafValues>
            3.4214492887258530e-02 -6.2344002723693848e-01</leafValues></_>
        <_>
          <internalNodes>
            0 -1 842 -1.4891503378748894e-03</internalNodes>
          <leafValues>
            1.7027753591537476e-01 -1.2659250199794769e-01</leafValues></_>
        <_>
          <internalNodes>
            0 -1 154 4.4034697115421295e-02</internalNodes>
          <leafValues>
            3.7132278084754944e-02 -5.5032801628112793e-01</leafValues></_>
        <_>
          <internalNodes>
            0 -1 85 -8.7984502315521240e-03</internalNodes>
          <leafValues>
            3.2599535584449768e-01 -6.3490413129329681e-02</leafValues></_>
        <_>
          <internalNodes>
            0 -1 1031 3.3206758089363575e-03</internalNodes>
          <leafValues>
            7.3828563094139099e-02 -2.8308904170989990e-01</leafValues></_>
        <_>
          <internalNodes>
            0 -1 984 1.2264061719179153e-02</internalNodes>
          <leafValues>
            -1.0436037927865982e-01 1.8707364797592163e-01</leafValues></_>
        <_>
          <internalNodes>
            0 -1 758 3.9682132191956043e-03</internalNodes>
          <leafValues>
            -8.0085150897502899e-02 2.3546379804611206e-01</leafValues></_>
        <_>
          <internalNodes>
            0 -1 23 -6.7718967329710722e-04</internalNodes>
          <leafValues>
            -3.8050186634063721e-01 5.1294799894094467e-02</leafValues></_>
        <_>
          <internalNodes>
            0 -1 169 -4.0466329082846642e-03</internalNodes>
          <leafValues>
            4.3377548456192017e-01 -5.0586685538291931e-02</leafValues></_>
        <_>
          <internalNodes>
            0 -1 226 1.6823360323905945e-01</internalNodes>
          <leafValues>
            -4.7058839350938797e-02 4.1707733273506165e-01</leafValues></_>
        <_>
          <internalNodes>
            0 -1 571 -1.5030433423817158e-03</internalNodes>
          <leafValues>
            2.2017061710357666e-01 -1.2561793625354767e-01</leafValues></_>
        <_>
          <internalNodes>
            0 -1 770 -1.3381179422140121e-02</internalNodes>
          <leafValues>
            -6.0655969381332397e-01 3.6258127540349960e-02</leafValues></_>
        <_>
          <internalNodes>
            0 -1 309 1.4042533934116364e-02</internalNodes>
          <leafValues>
            -7.0727743208408356e-02 2.9873779416084290e-01</leafValues></_>
        <_>
          <internalNodes>
            0 -1 359 -2.6009324938058853e-03</internalNodes>
          <leafValues>
            1.9898118078708649e-01 -9.9626250565052032e-02</leafValues></_>
        <_>
          <internalNodes>
            0 -1 544 -3.9869140833616257e-02</internalNodes>
          <leafValues>
            7.2289103269577026e-01 -3.2076645642518997e-02</leafValues></_>
        <_>
          <internalNodes>
            0 -1 110 -1.9206949509680271e-03</internalNodes>
          <leafValues>
            -6.2609112262725830e-01 3.6810629069805145e-02</leafValues></_>
        <_>
          <internalNodes>
            0 -1 1026 1.9541571382433176e-03</internalNodes>
          <leafValues>
            -8.8351726531982422e-02 2.5052174925804138e-01</leafValues></_>
        <_>
          <internalNodes>
            0 -1 698 7.9245075583457947e-02</internalNodes>
          <leafValues>
            2.7024796232581139e-02 -7.8302001953125000e-01</leafValues></_>
        <_>
          <internalNodes>
            0 -1 929 -8.2680284976959229e-03</internalNodes>
          <leafValues>
            7.3392260074615479e-01 -3.2580591738224030e-02</leafValues></_>
        <_>
          <internalNodes>
            0 -1 783 -4.7679748386144638e-03</internalNodes>
          <leafValues>
            2.2012794017791748e-01 -8.2061104476451874e-02</leafValues></_>
        <_>
          <internalNodes>
            0 -1 1142 5.3554000332951546e-03</internalNodes>
          <leafValues>
            3.0114108696579933e-02 -6.4636576175689697e-01</leafValues></_>
        <_>
          <internalNodes>
            0 -1 1017 3.8862608373165131e-02</internalNodes>
          <leafValues>
            -4.7210980206727982e-02 4.6817833185195923e-01</leafValues></_>
        <_>
          <internalNodes>
            0 -1 1071 -4.1764989495277405e-02</internalNodes>
          <leafValues>
            -7.5429254770278931e-01 2.9062699526548386e-02</leafValues></_>
        <_>
          <internalNodes>
            0 -1 137 2.1767639555037022e-03</internalNodes>
          <leafValues>
            1.4923036098480225e-02 -9.2986339330673218e-01</leafValues></_>
        <_>
          <internalNodes>
            0 -1 396 3.9718591142445803e-04</internalNodes>
          <leafValues>
            -1.0362125933170319e-01 2.0703241229057312e-01</leafValues></_>
        <_>
          <internalNodes>
            0 -1 174 -9.4572361558675766e-03</internalNodes>
          <leafValues>
            2.9057949781417847e-02 -7.2832638025283813e-01</leafValues></_>
        <_>
          <internalNodes>
            0 -1 530 -1.6751430928707123e-02</internalNodes>
          <leafValues>
            -7.6858155429363251e-02 2.8099450469017029e-01</leafValues></_>
        <_>
          <internalNodes>
            0 -1 23 4.8658644664101303e-04</internalNodes>
          <leafValues>
            5.8180987834930420e-02 -3.3931815624237061e-01</leafValues></_>
        <_>
          <internalNodes>
            0 -1 636 1.4432803727686405e-03</internalNodes>
          <leafValues>
            -5.3677108138799667e-02 3.6904075741767883e-01</leafValues></_>
        <_>
          <internalNodes>
            0 -1 1023 1.6830772161483765e-02</internalNodes>
          <leafValues>
            -4.2604677379131317e-02 4.7711753845214844e-01</leafValues></_>
        <_>
          <internalNodes>
            0 -1 288 -1.9479781389236450e-02</internalNodes>
          <leafValues>
            4.9246397614479065e-01 -3.8483802229166031e-02</leafValues></_>
        <_>
          <internalNodes>
            0 -1 764 -2.6497992221266031e-03</internalNodes>
          <leafValues>
            1.8864730000495911e-01 -9.6983499825000763e-02</leafValues></_>
        <_>
          <internalNodes>
            0 -1 835 -1.7329491674900055e-02</internalNodes>
          <leafValues>
            -6.6589927673339844e-01 3.1176745891571045e-02</leafValues></_>
        <_>
          <internalNodes>
            0 -1 789 -1.4796262839809060e-03</internalNodes>
          <leafValues>
            1.7520935833454132e-01 -1.2120041251182556e-01</leafValues></_>
        <_>
          <internalNodes>
            0 -1 1055 -5.7613502576714382e-05</internalNodes>
          <leafValues>
            1.7466622591018677e-01 -1.1470299959182739e-01</leafValues></_>
        <_>
          <internalNodes>
            0 -1 126 5.7305139489471912e-03</internalNodes>
          <leafValues>
            -6.2755957245826721e-02 3.1903621554374695e-01</leafValues></_>
        <_>
          <internalNodes>
            0 -1 552 4.7156652435660362e-03</internalNodes>
          <leafValues>
            -8.1603445112705231e-02 2.5857642292976379e-01</leafValues></_>
        <_>
          <internalNodes>
            0 -1 1028 -1.2099645100533962e-03</internalNodes>
          <leafValues>
            -2.7544045448303223e-01 7.3411270976066589e-02</leafValues></_>
        <_>
          <internalNodes>
            0 -1 486 -1.4485852792859077e-02</internalNodes>
          <leafValues>
            6.8936467170715332e-01 -3.1235713511705399e-02</leafValues></_>
        <_>
          <internalNodes>
            0 -1 1124 -1.1783809401094913e-02</internalNodes>
          <leafValues>
            -7.4700355529785156e-01 3.0527912080287933e-02</leafValues></_>
        <_>
          <internalNodes>
            0 -1 191 1.1134663969278336e-01</internalNodes>
          <leafValues>
            1.2241044081747532e-02 -9.7631591558456421e-01</leafValues></_>
        <_>
          <internalNodes>
            0 -1 1117 1.7076898366212845e-02</internalNodes>
          <leafValues>
            1.5153613872826099e-02 -8.6291736364364624e-01</leafValues></_>
        <_>
          <internalNodes>
            0 -1 481 7.2552468627691269e-03</internalNodes>
          <leafValues>
            -8.9005865156650543e-02 2.3655699193477631e-01</leafValues></_>
        <_>
          <internalNodes>
            0 -1 192 -6.2827318906784058e-02</internalNodes>
          <leafValues>
            4.8434558510780334e-01 -4.5752171427011490e-02</leafValues></_>
        <_>
          <internalNodes>
            0 -1 859 5.4894322529435158e-03</internalNodes>
          <leafValues>
            4.2393732815980911e-02 -5.1377516984939575e-01</leafValues></_>
        <_>
          <internalNodes>
            0 -1 748 -2.8415083885192871e-02</internalNodes>
          <leafValues>
            4.2374694347381592e-01 -4.8096388578414917e-02</leafValues></_>
        <_>
          <internalNodes>
            0 -1 934 -1.0993385687470436e-02</internalNodes>
          <leafValues>
            2.9826870560646057e-01 -6.3758678734302521e-02</leafValues></_>
        <_>
          <internalNodes>
            0 -1 847 6.8216137588024139e-03</internalNodes>
          <leafValues>
            -1.4633092284202576e-01 1.6778905689716339e-01</leafValues></_>
        <_>
          <internalNodes>
            0 -1 135 -1.7081599682569504e-02</internalNodes>
          <leafValues>
            -4.6838045120239258e-01 4.2431715875864029e-02</leafValues></_>
        <_>
          <internalNodes>
            0 -1 642 -2.7680795639753342e-02</internalNodes>
          <leafValues>
            2.5392152369022369e-02 -6.5574288368225098e-01</leafValues></_>
        <_>
          <internalNodes>
            0 -1 139 3.9300946518778801e-03</internalNodes>
          <leafValues>
            7.2111770510673523e-02 -2.6013758778572083e-01</leafValues></_>
        <_>
          <internalNodes>
            0 -1 440 4.9705016426742077e-03</internalNodes>
          <leafValues>
            -8.7151356041431427e-02 2.2713640332221985e-01</leafValues></_>
        <_>
          <internalNodes>
            0 -1 392 -3.9149122312664986e-03</internalNodes>
          <leafValues>
            2.7911779284477234e-01 -7.3286123573780060e-02</leafValues></_>
        <_>
          <internalNodes>
            0 -1 14 3.1381294131278992e-02</internalNodes>
          <leafValues>
            4.8207700252532959e-02 -4.4861644506454468e-01</leafValues></_>
        <_>
          <internalNodes>
            0 -1 40 -5.7317042956128716e-04</internalNodes>
          <leafValues>
            -2.9460486769676208e-01 7.1211792528629303e-02</leafValues></_>
        <_>
          <internalNodes>
            0 -1 285 -6.9230812788009644e-01</internalNodes>
          <leafValues>
            -5.0848472118377686e-01 3.4656114876270294e-02</leafValues></_></weakClassifiers></_>
    <!-- stage 5 -->
    <_>
      <maxWeakCount>98</maxWeakCount>
      <stageThreshold>-1.0507551431655884e+00</stageThreshold>
      <weakClassifiers>
        <_>
          <internalNodes>
            0 -1 148 -7.0674687623977661e-02</internalNodes>
          <leafValues>
            -4.8993289470672607e-01 -5.0699301064014435e-02</leafValues></_>
        <_>
          <internalNodes>
            0 -1 643 1.3740211725234985e-02</internalNodes>
          <leafValues>
            -1.2828198075294495e-01 2.2401486337184906e-01</leafValues></_>
        <_>
          <internalNodes>
            0 -1 81 2.7881246060132980e-03</internalNodes>
          <leafValues>
            6.2300618737936020e-02 -3.6238154768943787e-01</leafValues></_>
        <_>
          <internalNodes>
            0 -1 116 6.7399419844150543e-02</internalNodes>
          <leafValues>
            1.2041629850864410e-01 -2.6109743118286133e-01</leafValues></_>
        <_>
          <internalNodes>
            0 -1 1115 -2.0528868772089481e-03</internalNodes>
          <leafValues>
            -3.8913542032241821e-01 5.0793748348951340e-02</leafValues></_>
        <_>
          <internalNodes>
            0 -1 375 -4.6461299061775208e-02</internalNodes>
          <leafValues>
            -4.4874587655067444e-01 5.4940655827522278e-02</leafValues></_>
        <_>
          <internalNodes>
            0 -1 1152 -1.4360600616782904e-03</internalNodes>
          <leafValues>
            -4.4604387879371643e-01 4.5072246342897415e-02</leafValues></_>
        <_>
          <internalNodes>
            0 -1 621 -1.3382143806666136e-03</internalNodes>
          <leafValues>
            2.5216117501258850e-01 -8.3872273564338684e-02</leafValues></_>
        <_>
          <internalNodes>
            0 -1 28 -1.2162315100431442e-01</internalNodes>
          <leafValues>
            -5.0618726015090942e-01 4.6681098639965057e-02</leafValues></_>
        <_>
          <internalNodes>
            0 -1 728 -1.8432930111885071e-02</internalNodes>
          <leafValues>
            2.4249435961246490e-01 -8.3010010421276093e-02</leafValues></_>
        <_>
          <internalNodes>
            0 -1 343 -1.3400866650044918e-02</internalNodes>
          <leafValues>
            4.7066083550453186e-01 -4.9478806555271149e-02</leafValues></_>
        <_>
          <internalNodes>
            0 -1 613 -5.0423946231603622e-04</internalNodes>
          <leafValues>
            2.4817276000976563e-01 -9.1950699687004089e-02</leafValues></_>
        <_>
          <internalNodes>
            0 -1 1157 -1.1239938437938690e-02</internalNodes>
          <leafValues>
            -4.8061299324035645e-01 5.6174743920564651e-02</leafValues></_>
        <_>
          <internalNodes>
            0 -1 930 -3.0309759313240647e-04</internalNodes>
          <leafValues>
            1.4059948921203613e-01 -1.6175301373004913e-01</leafValues></_>
        <_>
          <internalNodes>
            0 -1 903 2.1102145314216614e-02</internalNodes>
          <leafValues>
            -7.2579935193061829e-02 3.3346143364906311e-01</leafValues></_>
        <_>
          <internalNodes>
            0 -1 348 -1.2279318645596504e-02</internalNodes>
          <leafValues>
            4.0447187423706055e-01 -5.3431637585163116e-02</leafValues></_>
        <_>
          <internalNodes>
            0 -1 523 9.7795557230710983e-03</internalNodes>
          <leafValues>
            -4.2038060724735260e-02 5.4005831480026245e-01</leafValues></_>
        <_>
          <internalNodes>
            0 -1 464 -1.1228118836879730e-01</internalNodes>
          <leafValues>
            -2.8025123476982117e-01 7.5746990740299225e-02</leafValues></_>
        <_>
          <internalNodes>
            0 -1 32 -1.1168327182531357e-03</internalNodes>
          <leafValues>
            -3.4313318133354187e-01 6.3504025340080261e-02</leafValues></_>
        <_>
          <internalNodes>
            0 -1 502 6.9058034569025040e-03</internalNodes>
          <leafValues>
            -6.8725295364856720e-02 3.2581681013107300e-01</leafValues></_>
        <_>
          <internalNodes>
            0 -1 584 -3.9202384650707245e-03</internalNodes>
          <leafValues>
            1.7814028263092041e-01 -1.2268354743719101e-01</leafValues></_>
        <_>
          <internalNodes>
            0 -1 402 -4.7933310270309448e-03</internalNodes>
          <leafValues>
            2.1914628148078918e-01 -1.0916659235954285e-01</leafValues></_>
        <_>
          <internalNodes>
            0 -1 31 9.0132400393486023e-02</internalNodes>
          <leafValues>
            -8.8305987417697906e-02 2.8225868940353394e-01</leafValues></_>
        <_>
          <internalNodes>
            0 -1 620 -5.2494406700134277e-03</internalNodes>
          <leafValues>
            3.3467876911163330e-01 -7.2239205241203308e-02</leafValues></_>
        <_>
          <internalNodes>
            0 -1 632 -1.8650789279490709e-03</internalNodes>
          <leafValues>
            2.4099816381931305e-01 -9.9516943097114563e-02</leafValues></_>
        <_>
          <internalNodes>
            0 -1 904 -7.9703528899699450e-04</internalNodes>
          <leafValues>
            2.3075836896896362e-01 -1.0219495743513107e-01</leafValues></_>
        <_>
          <internalNodes>
            0 -1 271 9.2882905155420303e-03</internalNodes>
          <leafValues>
            5.1456078886985779e-02 -3.9957934617996216e-01</leafValues></_>
        <_>
          <internalNodes>
            0 -1 504 -6.7371577024459839e-03</internalNodes>
          <leafValues>
            2.7048763632774353e-01 -7.9780161380767822e-02</leafValues></_>
        <_>
          <internalNodes>
            0 -1 39 1.7029224545694888e-04</internalNodes>
          <leafValues>
            9.3736097216606140e-02 -2.1950693428516388e-01</leafValues></_>
        <_>
          <internalNodes>
            0 -1 180 -8.8946565985679626e-02</internalNodes>
          <leafValues>
            -6.0854440927505493e-01 3.3625897020101547e-02</leafValues></_>
        <_>
          <internalNodes>
            0 -1 5 -4.1654678061604500e-03</internalNodes>
          <leafValues>
            -2.9994663596153259e-01 7.1953721344470978e-02</leafValues></_>
        <_>
          <internalNodes>
            0 -1 1116 -1.9762995652854443e-03</internalNodes>
          <leafValues>
            -2.7612709999084473e-01 7.5253359973430634e-02</leafValues></_>
        <_>
          <internalNodes>
            0 -1 1079 -5.1021371036767960e-03</internalNodes>
          <leafValues>
            -4.0774103999137878e-01 5.2601370960474014e-02</leafValues></_>
        <_>
          <internalNodes>
            0 -1 700 5.3834950085729361e-04</internalNodes>
          <leafValues>
            -1.1212277412414551e-01 1.8021820485591888e-01</leafValues></_>
        <_>
          <internalNodes>
            0 -1 200 -2.4855569936335087e-03</internalNodes>
          <leafValues>
            -3.7457588315010071e-01 4.9558326601982117e-02</leafValues></_>
        <_>
          <internalNodes>
            0 -1 1025 2.0293463603593409e-04</internalNodes>
          <leafValues>
            -1.2820164859294891e-01 1.4188888669013977e-01</leafValues></_>
        <_>
          <internalNodes>
            0 -1 403 -1.2836250662803650e-01</internalNodes>
          <leafValues>
            -7.3382842540740967e-01 2.1867176517844200e-02</leafValues></_>
        <_>
          <internalNodes>
            0 -1 695 -7.6654888689517975e-03</internalNodes>
          <leafValues>
            -7.2417646646499634e-01 1.9151940941810608e-02</leafValues></_>
        <_>
          <internalNodes>
            0 -1 696 -3.2549190800637007e-03</internalNodes>
          <leafValues>
            2.3175680637359619e-01 -1.0853521525859833e-01</leafValues></_>
        <_>
          <internalNodes>
            0 -1 136 1.1000846512615681e-02</internalNodes>
          <leafValues>
            5.8158762753009796e-02 -3.4130012989044189e-01</leafValues></_>
        <_>
          <internalNodes>
            0 -1 654 9.0313293039798737e-03</internalNodes>
          <leafValues>
            -7.7448792755603790e-02 2.5552359223365784e-01</leafValues></_>
        <_>
          <internalNodes>
            0 -1 1076 7.5128888711333275e-03</internalNodes>
          <leafValues>
            3.7322413176298141e-02 -5.4546731710433960e-01</leafValues></_>
        <_>
          <internalNodes>
            0 -1 678 -1.9360147416591644e-03</internalNodes>
          <leafValues>
            2.6387429237365723e-01 -7.4736684560775757e-02</leafValues></_>
        <_>
          <internalNodes>
            0 -1 301 -6.0404334217309952e-03</internalNodes>
          <leafValues>
            2.6966133713722229e-01 -7.2565875947475433e-02</leafValues></_>
        <_>
          <internalNodes>
            0 -1 781 -1.9196956418454647e-03</internalNodes>
          <leafValues>
            2.3998500406742096e-01 -8.6103051900863647e-02</leafValues></_>
        <_>
          <internalNodes>
            0 -1 522 -2.9551032930612564e-02</internalNodes>
          <leafValues>
            -1.5070247650146484e-01 1.2444182485342026e-01</leafValues></_>
        <_>
          <internalNodes>
            0 -1 746 -7.5799431651830673e-03</internalNodes>
          <leafValues>
            3.6488887667655945e-01 -5.2712913602590561e-02</leafValues></_>
        <_>
          <internalNodes>
            0 -1 1060 -1.2836847454309464e-03</internalNodes>
          <leafValues>
            -3.3445084095001221e-01 5.7755738496780396e-02</leafValues></_>
        <_>
          <internalNodes>
            0 -1 421 2.0552005618810654e-02</internalNodes>
          <leafValues>
            -3.3893276005983353e-02 6.1249977350234985e-01</leafValues></_>
        <_>
          <internalNodes>
            0 -1 143 1.1312016285955906e-03</internalNodes>
          <leafValues>
            5.3567204624414444e-02 -3.6637499928474426e-01</leafValues></_>
        <_>
          <internalNodes>
            0 -1 60 7.7161337248980999e-03</internalNodes>
          <leafValues>
            -6.6416114568710327e-02 2.9149073362350464e-01</leafValues></_>
        <_>
          <internalNodes>
            0 -1 422 -1.4080419205129147e-02</internalNodes>
          <leafValues>
            3.0058670043945313e-01 -5.9699509292840958e-02</leafValues></_>
        <_>
          <internalNodes>
            0 -1 196 2.3735569790005684e-02</internalNodes>
          <leafValues>
            -6.0845021158456802e-02 2.9410544037818909e-01</leafValues></_>
        <_>
          <internalNodes>
            0 -1 219 -2.5486648082733154e-01</internalNodes>
          <leafValues>
            2.7804551646113396e-02 -6.8850755691528320e-01</leafValues></_>
        <_>
          <internalNodes>
            0 -1 378 -1.3062204234302044e-03</internalNodes>
          <leafValues>
            -5.6107699871063232e-01 2.6766549795866013e-02</leafValues></_>
        <_>
          <internalNodes>
            0 -1 1077 1.7416398623026907e-04</internalNodes>
          <leafValues>
            -1.1136015504598618e-01 1.6786649823188782e-01</leafValues></_>
        <_>
          <internalNodes>
            0 -1 188 1.2552967527881265e-03</internalNodes>
          <leafValues>
            6.8423531949520111e-02 -2.8293907642364502e-01</leafValues></_>
        <_>
          <internalNodes>
            0 -1 35 -2.4630373716354370e-01</internalNodes>
          <leafValues>
            -9.6178793907165527e-01 1.7587918788194656e-02</leafValues></_>
        <_>
          <internalNodes>
            0 -1 938 3.5056011984124780e-04</internalNodes>
          <leafValues>
            -1.0519573092460632e-01 1.7763125896453857e-01</leafValues></_>
        <_>
          <internalNodes>
            0 -1 885 -3.1687688082456589e-02</internalNodes>
          <leafValues>
            -6.1106637120246887e-02 3.3140167593955994e-01</leafValues></_>
        <_>
          <internalNodes>
            0 -1 173 -1.3019520044326782e-01</internalNodes>
          <leafValues>
            6.5075330436229706e-02 -2.8136986494064331e-01</leafValues></_>
        <_>
          <internalNodes>
            0 -1 457 2.2480376064777374e-01</internalNodes>
          <leafValues>
            1.8743567168712616e-02 -8.0652266740798950e-01</leafValues></_>
        <_>
          <internalNodes>
            0 -1 1136 1.1380391661077738e-03</internalNodes>
          <leafValues>
            6.7598104476928711e-02 -2.5955346226692200e-01</leafValues></_>
        <_>
          <internalNodes>
            0 -1 329 1.0975195094943047e-02</internalNodes>
          <leafValues>
            -4.5692864805459976e-02 3.9948844909667969e-01</leafValues></_>
        <_>
          <internalNodes>
            0 -1 1137 5.9324903413653374e-03</internalNodes>
          <leafValues>
            2.6623835787177086e-02 -7.3231452703475952e-01</leafValues></_>
        <_>
          <internalNodes>
            0 -1 231 -2.8823274187743664e-03</internalNodes>
          <leafValues>
            7.1512204408645630e-01 -3.0509032309055328e-02</leafValues></_>
        <_>
          <internalNodes>
            0 -1 143 -1.3340715086087584e-03</internalNodes>
          <leafValues>
            -4.3114939332008362e-01 4.4041607528924942e-02</leafValues></_>
        <_>
          <internalNodes>
            0 -1 634 -9.0771808754652739e-04</internalNodes>
          <leafValues>
            2.1218726038932800e-01 -8.3143025636672974e-02</leafValues></_>
        <_>
          <internalNodes>
            0 -1 416 -3.8113084156066179e-03</internalNodes>
          <leafValues>
            2.6498728990554810e-01 -6.4261712133884430e-02</leafValues></_>
        <_>
          <internalNodes>
            0 -1 562 -4.5272836089134216e-01</internalNodes>
          <leafValues>
            -7.1665656566619873e-01 2.5017349049448967e-02</leafValues></_>
        <_>
          <internalNodes>
            0 -1 855 -4.2440272867679596e-02</internalNodes>
          <leafValues>
            -1.7698743939399719e-01 1.0196329653263092e-01</leafValues></_>
        <_>
          <internalNodes>
            0 -1 991 -2.2633518092334270e-03</internalNodes>
          <leafValues>
            2.6382946968078613e-01 -6.9693043828010559e-02</leafValues></_>
        <_>
          <internalNodes>
            0 -1 1090 -5.5083248298615217e-04</internalNodes>
          <leafValues>
            -2.1457128226757050e-01 9.4655081629753113e-02</leafValues></_>
        <_>
          <internalNodes>
            0 -1 256 -1.0891829431056976e-01</internalNodes>
          <leafValues>
            2.4753737449645996e-01 -8.0693036317825317e-02</leafValues></_>
        <_>
          <internalNodes>
            0 -1 269 3.3106096088886261e-03</internalNodes>
          <leafValues>
            4.7576662153005600e-02 -3.6958718299865723e-01</leafValues></_>
        <_>
          <internalNodes>
            0 -1 1141 3.8672666996717453e-03</internalNodes>
          <leafValues>
            4.0644299238920212e-02 -4.1709110140800476e-01</leafValues></_>
        <_>
          <internalNodes>
            0 -1 432 1.6238421667367220e-03</internalNodes>
          <leafValues>
            -6.8076327443122864e-02 2.8235319256782532e-01</leafValues></_>
        <_>
          <internalNodes>
            0 -1 438 -3.1499518081545830e-03</internalNodes>
          <leafValues>
            2.0002700388431549e-01 -1.0197430104017258e-01</leafValues></_>
        <_>
          <internalNodes>
            0 -1 774 -7.4352711439132690e-02</internalNodes>
          <leafValues>
            2.2450445592403412e-01 -9.4567753374576569e-02</leafValues></_>
        <_>
          <internalNodes>
            0 -1 441 -6.0712867416441441e-03</internalNodes>
          <leafValues>
            5.7496070861816406e-01 -3.4701842814683914e-02</leafValues></_>
        <_>
          <internalNodes>
            0 -1 970 -4.3909372761845589e-03</internalNodes>
          <leafValues>
            -2.8170341253280640e-01 7.4054479598999023e-02</leafValues></_>
        <_>
          <internalNodes>
            0 -1 1044 -5.5667548440396786e-04</internalNodes>
          <leafValues>
            2.1108004450798035e-01 -9.6756234765052795e-02</leafValues></_>
        <_>
          <internalNodes>
            0 -1 651 -2.2717210231348872e-04</internalNodes>
          <leafValues>
            1.5191443264484406e-01 -1.3492035865783691e-01</leafValues></_>
        <_>
          <internalNodes>
            0 -1 983 -3.4512556158006191e-03</internalNodes>
          <leafValues>
            2.9306885600090027e-01 -6.7236669361591339e-02</leafValues></_>
        <_>
          <internalNodes>
            0 -1 1119 -2.5729918852448463e-03</internalNodes>
          <leafValues>
            -5.3955656290054321e-01 3.9146650582551956e-02</leafValues></_>
        <_>
          <internalNodes>
            0 -1 199 -2.2980612702667713e-03</internalNodes>
          <leafValues>
            -2.9775971174240112e-01 6.7035466432571411e-02</leafValues></_>
        <_>
          <internalNodes>
            0 -1 766 -1.8754871562123299e-03</internalNodes>
          <leafValues>
            2.1437494456768036e-01 -9.2210955917835236e-02</leafValues></_>
        <_>
          <internalNodes>
            0 -1 65 -1.6225576400756836e-03</internalNodes>
          <leafValues>
            -2.5835683941841125e-01 7.2102069854736328e-02</leafValues></_>
        <_>
          <internalNodes>
            0 -1 294 -2.6399677991867065e-01</internalNodes>
          <leafValues>
            -3.0396619811654091e-02 6.0434126853942871e-01</leafValues></_>
        <_>
          <internalNodes>
            0 -1 663 -2.2921413183212280e-03</internalNodes>
          <leafValues>
            3.5835169255733490e-02 -6.3076859712600708e-01</leafValues></_>
        <_>
          <internalNodes>
            0 -1 433 2.6053865440189838e-03</internalNodes>
          <leafValues>
            -8.6168870329856873e-02 2.2018623352050781e-01</leafValues></_>
        <_>
          <internalNodes>
            0 -1 76 2.2163368761539459e-01</internalNodes>
          <leafValues>
            2.8217790648341179e-02 -6.3609635829925537e-01</leafValues></_>
        <_>
          <internalNodes>
            0 -1 603 -6.4366997685283422e-04</internalNodes>
          <leafValues>
            1.5841048955917358e-01 -1.1671642214059830e-01</leafValues></_>
        <_>
          <internalNodes>
            0 -1 71 -1.1653463542461395e-01</internalNodes>
          <leafValues>
            -5.0064086914062500e-01 3.6063488572835922e-02</leafValues></_>
        <_>
          <internalNodes>
            0 -1 537 1.3844329863786697e-02</internalNodes>
          <leafValues>
            1.8422411754727364e-02 -7.8092497587203979e-01</leafValues></_>
        <_>
          <internalNodes>
            0 -1 330 -1.0942436754703522e-01</internalNodes>
          <leafValues>
            -8.2588988542556763e-01 1.5040941536426544e-02</leafValues></_>
        <_>
          <internalNodes>
            0 -1 894 -5.0619412213563919e-03</internalNodes>
          <leafValues>
            1.9524498283863068e-01 -9.0638488531112671e-02</leafValues></_>
        <_>
          <internalNodes>
            0 -1 830 1.4609755016863346e-02</internalNodes>
          <leafValues>
            -9.5200933516025543e-02 2.0807769894599915e-01</leafValues></_></weakClassifiers></_>
    <!-- stage 6 -->
    <_>
      <maxWeakCount>100</maxWeakCount>
      <stageThreshold>-1.8447396755218506e+00</stageThreshold>
      <weakClassifiers>
        <_>
          <internalNodes>
            0 -1 702 -3.1879995018243790e-02</internalNodes>
          <leafValues>
            -3.4253898262977600e-01 2.2499999403953552e-01</leafValues></_>
        <_>
          <internalNodes>
            0 -1 1149 -1.4422910753637552e-03</internalNodes>
          <leafValues>
            -3.4254130721092224e-01 5.6039698421955109e-02</leafValues></_>
        <_>
          <internalNodes>
            0 -1 1113 -6.0944072902202606e-04</internalNodes>
          <leafValues>
            -2.6841720938682556e-01 7.7491022646427155e-02</leafValues></_>
        <_>
          <internalNodes>
            0 -1 884 -4.8143966123461723e-03</internalNodes>
          <leafValues>
            1.5922926366329193e-01 -1.3360109925270081e-01</leafValues></_>
        <_>
          <internalNodes>
            0 -1 1144 2.4448032490909100e-03</internalNodes>
          <leafValues>
            1.0616161674261093e-01 -2.7437493205070496e-01</leafValues></_>
        <_>
          <internalNodes>
            0 -1 1113 4.0186892147175968e-04</internalNodes>
          <leafValues>
            7.7530719339847565e-02 -2.5369003415107727e-01</leafValues></_>
        <_>
          <internalNodes>
            0 -1 863 1.4784662052989006e-03</internalNodes>
          <leafValues>
            -1.1553250998258591e-01 1.9899515807628632e-01</leafValues></_>
        <_>
          <internalNodes>
            0 -1 870 8.5374829359352589e-04</internalNodes>
          <leafValues>
            -9.2167317867279053e-02 2.3826405405998230e-01</leafValues></_>
        <_>
          <internalNodes>
            0 -1 649 -3.6676912568509579e-03</internalNodes>
          <leafValues>
            2.4411457777023315e-01 -8.6508363485336304e-02</leafValues></_>
        <_>
          <internalNodes>
            0 -1 426 -7.8478232026100159e-02</internalNodes>
          <leafValues>
            1.9231879711151123e-01 -1.1442033201456070e-01</leafValues></_>
        <_>
          <internalNodes>
            0 -1 406 3.6551030352711678e-03</internalNodes>
          <leafValues>
            -5.7518009096384048e-02 3.3303567767143250e-01</leafValues></_>
        <_>
          <internalNodes>
            0 -1 555 1.6368819633498788e-03</internalNodes>
          <leafValues>
            -1.3048727810382843e-01 1.3251982629299164e-01</leafValues></_>
        <_>
          <internalNodes>
            0 -1 478 -8.9726988226175308e-03</internalNodes>
          <leafValues>
            2.6462161540985107e-01 -5.9598311781883240e-02</leafValues></_>
        <_>
          <internalNodes>
            0 -1 917 2.1277992054820061e-03</internalNodes>
          <leafValues>
            4.7098692506551743e-02 -3.4079384803771973e-01</leafValues></_>
        <_>
          <internalNodes>
            0 -1 41 -1.1419829679653049e-03</internalNodes>
          <leafValues>
            -2.5185489654541016e-01 6.3618712127208710e-02</leafValues></_>
        <_>
          <internalNodes>
            0 -1 666 -3.9955927059054375e-03</internalNodes>
          <leafValues>
            4.7137063741683960e-01 -3.7776317447423935e-02</leafValues></_>
        <_>
          <internalNodes>
            0 -1 1050 -1.2428553309291601e-03</internalNodes>
          <leafValues>
            1.7445670068264008e-01 -8.9700177311897278e-02</leafValues></_>
        <_>
          <internalNodes>
            0 -1 1018 3.9902053773403168e-02</internalNodes>
          <leafValues>
            -7.2053126990795135e-02 2.9440987110137939e-01</leafValues></_>
        <_>
          <internalNodes>
            0 -1 1012 -1.7576670506969094e-03</internalNodes>
          <leafValues>
            2.6060134172439575e-01 -6.5657444298267365e-02</leafValues></_>
        <_>
          <internalNodes>
            0 -1 241 2.0604836940765381e-01</internalNodes>
          <leafValues>
            -2.8625871986150742e-02 5.8106487989425659e-01</leafValues></_>
        <_>
          <internalNodes>
