<?xml version="1.0"?>
<opencv_storage>
<cascade>
  <stageType>BOOST</stageType>
  <featureType>HAAR</featureType>
  <height>24</height>
  <width>24</width>
  <stageParams>
    <boostType>GAB</boostType>
    <minHitRate>9.9900001287460327e-01</minHitRate>
    <maxFalseAlarm>3.0000001192092896e-01</maxFalseAlarm>
    <weightTrimRate>9.4999999999999996e-01</weightTrimRate>
    <maxDepth>1</maxDepth>
    <maxWeakCount>100</maxWeakCount></stageParams>
  <featureParams>
    <maxCatCount>0</maxCatCount>
    <featSize>1</featSize>
    <mode>BASIC</mode></featureParams>
  <stageNum>10</stageNum>
  <stages>
    <!-- stage 0 -->
    <_>
      <maxWeakCount>13</maxWeakCount>
      <stageThreshold>-1.1980154514312744e+00</stageThreshold>
      <weakClassifiers>
        <_>
          <internalNodes>
            0 -1 72 3.6760471761226654e-02</internalNodes>
          <leafValues>
            -7.7478343248367310e-01 3.1055901199579239e-02</leafValues></_>
        <_>
          <internalNodes>
            0 -1 113 -4.2084190063178539e-03</internalNodes>
          <leafValues>
            3.3935853838920593e-01 -4.4569429755210876e-01</leafValues></_>
        <_>
          <internalNodes>
            0 -1 120 -2.7400751132518053e-03</internalNodes>
          <leafValues>
            4.2338404059410095e-01 -2.9608365893363953e-01</leafValues></_>
        <_>
          <internalNodes>
            0 -1 133 -2.3093998432159424e-02</internalNodes>
          <leafValues>
            5.9038120508193970e-01 -2.0603944361209869e-01</leafValues></_>
        <_>
          <internalNodes>
            0 -1 91 5.9366798959672451e-03</internalNodes>
          <leafValues>
            -2.2248136997222900e-01 5.0870621204376221e-01</leafValues></_>
        <_>
          <internalNodes>
            0 -1 171 3.6129713058471680e-02</internalNodes>
          <leafValues>
            -2.3088908195495605e-01 5.0936490297317505e-01</leafValues></_>
        <_>
          <internalNodes>
            0 -1 60 -1.4456169679760933e-02</internalNodes>
          <leafValues>
            6.5174937248229980e-01 -1.5706765651702881e-01</leafValues></_>
        <_>
          <internalNodes>
            0 -1 109 -2.8688723687082529e-03</internalNodes>
          <leafValues>
            4.5843076705932617e-01 -2.6351571083068848e-01</leafValues></_>
        <_>
          <internalNodes>
            0 -1 214 -4.7553665935993195e-02</internalNodes>
          <leafValues>
            2.0920023322105408e-01 -7.2774094343185425e-01</leafValues></_>
        <_>
          <internalNodes>
            0 -1 114 -4.5231403782963753e-04</internalNodes>
          <leafValues>
            3.5022556781768799e-01 -3.3744162321090698e-01</leafValues></_>
        <_>
          <internalNodes>
            0 -1 62 -2.1345177665352821e-02</internalNodes>
          <leafValues>
            5.3212690353393555e-01 -1.7677187919616699e-01</leafValues></_>
        <_>
          <internalNodes>
            0 -1 49 -1.5005553141236305e-02</internalNodes>
          <leafValues>
            6.0799670219421387e-01 -1.7755530774593353e-01</leafValues></_>
        <_>
          <internalNodes>
            0 -1 132 -4.8890970647335052e-02</internalNodes>
          <leafValues>
            5.4001063108444214e-01 -1.7243631184101105e-01</leafValues></_></weakClassifiers></_>
    <!-- stage 1 -->
    <_>
      <maxWeakCount>16</maxWeakCount>
      <stageThreshold>-1.3361713886260986e+00</stageThreshold>
      <weakClassifiers>
        <_>
          <internalNodes>
            0 -1 52 -3.1977808475494385e-01</internalNodes>
          <leafValues>
            -8.6936235427856445e-01 -4.3267503380775452e-01</leafValues></_>
        <_>
          <internalNodes>
            0 -1 76 -4.9479760229587555e-02</internalNodes>
          <leafValues>
            4.6642097830772400e-01 -3.4233105182647705e-01</leafValues></_>
        <_>
          <internalNodes>
            0 -1 87 -3.8098430633544922e-01</internalNodes>
          <leafValues>
            -6.1007946729660034e-01 1.8226820230484009e-01</leafValues></_>
        <_>
          <internalNodes>
            0 -1 59 1.9298937171697617e-02</internalNodes>
          <leafValues>
            -2.3202465474605560e-01 4.0012010931968689e-01</leafValues></_>
        <_>
          <internalNodes>
            0 -1 65 1.6224969178438187e-02</internalNodes>
          <leafValues>
            -1.6942484676837921e-01 3.9915099740028381e-01</leafValues></_>
        <_>
          <internalNodes>
            0 -1 5 1.4167082309722900e-01</internalNodes>
          <leafValues>
            1.7566855251789093e-01 -6.0818111896514893e-01</leafValues></_>
        <_>
          <internalNodes>
            0 -1 241 7.0803065318614244e-04</internalNodes>
          <leafValues>
            8.0473050475120544e-02 -6.0846012830734253e-01</leafValues></_>
        <_>
          <internalNodes>
            0 -1 47 -3.7602558732032776e-02</internalNodes>
          <leafValues>
            5.4887878894805908e-01 -1.2705680727958679e-01</leafValues></_>
        <_>
          <internalNodes>
            0 -1 141 4.0043631452135742e-04</internalNodes>
          <leafValues>
            -2.0806311070919037e-01 3.4782123565673828e-01</leafValues></_>
        <_>
          <internalNodes>
            0 -1 26 -2.3066313005983829e-03</internalNodes>
          <leafValues>
            -8.5796129703521729e-01 1.1140681803226471e-01</leafValues></_>
        <_>
          <internalNodes>
            0 -1 51 -4.3979197740554810e-02</internalNodes>
          <leafValues>
            6.6486459970474243e-01 -1.2524956464767456e-01</leafValues></_>
        <_>
          <internalNodes>
            0 -1 77 4.7334134578704834e-03</internalNodes>
          <leafValues>
            -1.1817928403615952e-01 5.2339655160903931e-01</leafValues></_>
        <_>
          <internalNodes>
            0 -1 176 -3.4969523549079895e-02</internalNodes>
          <leafValues>
            6.5654098987579346e-01 -1.0281595587730408e-01</leafValues></_>
        <_>
          <internalNodes>
            0 -1 34 1.1797236278653145e-02</internalNodes>
          <leafValues>
            9.5082268118858337e-02 -9.1767209768295288e-01</leafValues></_>
        <_>
          <internalNodes>
            0 -1 17 4.8213310539722443e-02</internalNodes>
          <leafValues>
            -1.3466848433017731e-01 6.9003218412399292e-01</leafValues></_>
        <_>
          <internalNodes>
            0 -1 232 -4.0025860071182251e-03</internalNodes>
          <leafValues>
            -6.3015723228454590e-01 1.3893048465251923e-01</leafValues></_></weakClassifiers></_>
    <!-- stage 2 -->
    <_>
      <maxWeakCount>21</maxWeakCount>
      <stageThreshold>-1.3473981618881226e+00</stageThreshold>
      <weakClassifiers>
        <_>
          <internalNodes>
            0 -1 164 8.0668143928050995e-03</internalNodes>
          <leafValues>
            -7.0766490697860718e-01 -7.6923079788684845e-02</leafValues></_>
        <_>
          <internalNodes>
            0 -1 234 -1.5051364898681641e-03</internalNodes>
          <leafValues>
            -7.6571249961853027e-01 -3.5569533705711365e-02</leafValues></_>
        <_>
          <internalNodes>
            0 -1 1 -4.3156528472900391e-01</internalNodes>
          <leafValues>
            -9.3225902318954468e-01 4.4691134244203568e-02</leafValues></_>
        <_>
          <internalNodes>
            0 -1 27 3.4817624837160110e-03</internalNodes>
          <leafValues>
            1.1221516132354736e-01 -6.6044676303863525e-01</leafValues></_>
        <_>
          <internalNodes>
            0 -1 239 5.5162655189633369e-04</internalNodes>
          <leafValues>
            1.4432774484157562e-01 -4.8860663175582886e-01</leafValues></_>
        <_>
          <internalNodes>
            0 -1 203 -7.1467623114585876e-02</internalNodes>
          <leafValues>
            -9.6608638763427734e-01 6.4004793763160706e-02</leafValues></_>
        <_>
          <internalNodes>
            0 -1 94 -1.7948639579117298e-03</internalNodes>
          <leafValues>
            3.8407200574874878e-01 -1.9756452739238739e-01</leafValues></_>
        <_>
          <internalNodes>
            0 -1 216 2.5065342197194695e-04</internalNodes>
          <leafValues>
            -2.0653524994850159e-01 2.9273733496665955e-01</leafValues></_>
        <_>
          <internalNodes>
            0 -1 115 -7.7324472367763519e-03</internalNodes>
          <leafValues>
            4.4706740975379944e-01 -1.4519289135932922e-01</leafValues></_>
        <_>
          <internalNodes>
            0 -1 135 -3.3013634383678436e-02</internalNodes>
          <leafValues>
            5.6665229797363281e-01 -1.0617713630199432e-01</leafValues></_>
        <_>
          <internalNodes>
            0 -1 158 -1.9215643405914307e-02</internalNodes>
          <leafValues>
            -7.8316062688827515e-01 8.4313042461872101e-02</leafValues></_>
        <_>
          <internalNodes>
            0 -1 156 8.8244127109646797e-03</internalNodes>
          <leafValues>
            -1.8088635802268982e-01 3.8059124350547791e-01</leafValues></_>
        <_>
          <internalNodes>
            0 -1 218 -3.3604514319449663e-03</internalNodes>
          <leafValues>
            -6.5507262945175171e-01 9.7554333508014679e-02</leafValues></_>
        <_>
          <internalNodes>
            0 -1 237 -3.0631527770310640e-03</internalNodes>
          <leafValues>
            -4.7765928506851196e-01 1.1777336895465851e-01</leafValues></_>
        <_>
          <internalNodes>
            0 -1 25 1.3011847622692585e-03</internalNodes>
          <leafValues>
            9.0183839201927185e-02 -6.3204658031463623e-01</leafValues></_>
        <_>
          <internalNodes>
            0 -1 142 -1.2410027906298637e-02</internalNodes>
          <leafValues>
            6.2806200981140137e-01 -1.1777982115745544e-01</leafValues></_>
        <_>
          <internalNodes>
            0 -1 103 7.8784748911857605e-03</internalNodes>
          <leafValues>
            -1.5568654239177704e-01 3.9169394969940186e-01</leafValues></_>
        <_>
          <internalNodes>
            0 -1 188 -7.0577412843704224e-02</internalNodes>
          <leafValues>
            5.2912706136703491e-01 -1.1709516495466232e-01</leafValues></_>
        <_>
          <internalNodes>
            0 -1 204 9.8393494263291359e-03</internalNodes>
          <leafValues>
            -1.9137980043888092e-01 3.7476167082786560e-01</leafValues></_>
        <_>
          <internalNodes>
            0 -1 81 -3.1075896695256233e-02</internalNodes>
          <leafValues>
            3.4325638413429260e-01 -1.6967698931694031e-01</leafValues></_>
        <_>
          <internalNodes>
            0 -1 50 7.5916156172752380e-02</internalNodes>
          <leafValues>
            6.6056758165359497e-02 -9.6680462360382080e-01</leafValues></_></weakClassifiers></_>
    <!-- stage 3 -->
    <_>
      <maxWeakCount>24</maxWeakCount>
      <stageThreshold>-1.4645824432373047e+00</stageThreshold>
      <weakClassifiers>
        <_>
          <internalNodes>
            0 -1 97 4.7591128386557102e-03</internalNodes>
          <leafValues>
            -6.9681310653686523e-01 2.3076923191547394e-01</leafValues></_>
        <_>
          <internalNodes>
            0 -1 110 6.4920971635729074e-04</internalNodes>
          <leafValues>
            -2.8843155503273010e-01 2.8513121604919434e-01</leafValues></_>
        <_>
          <internalNodes>
            0 -1 183 -3.2002450898289680e-03</internalNodes>
          <leafValues>
            2.9727032780647278e-01 -2.0908142626285553e-01</leafValues></_>
        <_>
          <internalNodes>
            0 -1 88 -1.4857841888442636e-03</internalNodes>
          <leafValues>
            3.9156499505043030e-01 -1.5227074921131134e-01</leafValues></_>
        <_>
          <internalNodes>
            0 -1 242 -7.9122968018054962e-03</internalNodes>
          <leafValues>
            -9.4884812831878662e-01 6.8138733506202698e-02</leafValues></_>
        <_>
          <internalNodes>
            0 -1 10 -2.2289434447884560e-02</internalNodes>
          <leafValues>
            -7.5015795230865479e-01 7.8870564699172974e-02</leafValues></_>
        <_>
          <internalNodes>
            0 -1 35 -1.5199029445648193e-01</internalNodes>
          <leafValues>
            -3.2221546769142151e-01 2.0645308494567871e-01</leafValues></_>
        <_>
          <internalNodes>
            0 -1 30 -4.5334808528423309e-02</internalNodes>
          <leafValues>
            8.6592167615890503e-02 -6.1041653156280518e-01</leafValues></_>
        <_>
          <internalNodes>
            0 -1 217 -1.0806963546201587e-03</internalNodes>
          <leafValues>
            -5.3846979141235352e-01 1.0158912092447281e-01</leafValues></_>
        <_>
          <internalNodes>
            0 -1 248 -9.0393977006897330e-04</internalNodes>
          <leafValues>
            -7.0191258192062378e-01 8.6850367486476898e-02</leafValues></_>
        <_>
          <internalNodes>
            0 -1 147 2.2832836955785751e-02</internalNodes>
          <leafValues>
            -1.3204526901245117e-01 5.1180261373519897e-01</leafValues></_>
        <_>
          <internalNodes>
            0 -1 139 6.2177225481718779e-04</internalNodes>
          <leafValues>
            -1.6851317882537842e-01 3.7005171179771423e-01</leafValues></_>
        <_>
          <internalNodes>
            0 -1 54 -2.1031301468610764e-02</internalNodes>
          <leafValues>
            7.4172669649124146e-01 -7.5552493333816528e-02</leafValues></_>
        <_>
          <internalNodes>
            0 -1 122 1.5130238607525826e-02</internalNodes>
          <leafValues>
            -1.0075721889734268e-01 5.8116912841796875e-01</leafValues></_>
        <_>
          <internalNodes>
            0 -1 86 -3.3971811644732952e-03</internalNodes>
          <leafValues>
            3.5738787055015564e-01 -2.0266725122928619e-01</leafValues></_>
        <_>
          <internalNodes>
            0 -1 233 1.4823818346485496e-03</internalNodes>
          <leafValues>
            1.0250277072191238e-01 -6.5749758481979370e-01</leafValues></_>
        <_>
          <internalNodes>
            0 -1 210 -2.2925646044313908e-03</internalNodes>
          <leafValues>
            4.8919591307640076e-01 -1.3620418310165405e-01</leafValues></_>
        <_>
          <internalNodes>
            0 -1 226 -1.4025517739355564e-03</internalNodes>
          <leafValues>
            -4.3206107616424561e-01 1.4535446465015411e-01</leafValues></_>
        <_>
          <internalNodes>
            0 -1 177 6.2626512954011559e-04</internalNodes>
          <leafValues>
            -2.2949406504631042e-01 3.4492224454879761e-01</leafValues></_>
        <_>
          <internalNodes>
            0 -1 44 7.0763841271400452e-02</internalNodes>
          <leafValues>
            9.6742413938045502e-02 -6.4256942272186279e-01</leafValues></_>
        <_>
          <internalNodes>
            0 -1 189 -8.8931620121002197e-03</internalNodes>
          <leafValues>
            6.8563294410705566e-01 -9.5729500055313110e-02</leafValues></_>
        <_>
          <internalNodes>
            0 -1 127 4.3515615165233612e-02</internalNodes>
          <leafValues>
            -1.5943056344985962e-01 3.7469005584716797e-01</leafValues></_>
        <_>
          <internalNodes>
            0 -1 179 -2.4522291496396065e-03</internalNodes>
          <leafValues>
            3.0881634354591370e-01 -2.0962977409362793e-01</leafValues></_>
        <_>
          <internalNodes>
            0 -1 180 4.1222525760531425e-03</internalNodes>
          <leafValues>
            -1.5985357761383057e-01 4.2296642065048218e-01</leafValues></_></weakClassifiers></_>
    <!-- stage 4 -->
    <_>
      <maxWeakCount>24</maxWeakCount>
      <stageThreshold>-1.2718696594238281e+00</stageThreshold>
      <weakClassifiers>
        <_>
          <internalNodes>
            0 -1 111 3.3273729495704174e-03</internalNodes>
          <leafValues>
            -7.1376144886016846e-01 -2.0000000298023224e-01</leafValues></_>
        <_>
          <internalNodes>
            0 -1 159 -4.8364229500293732e-02</internalNodes>
          <leafValues>
            -4.4287726283073425e-01 2.2000486031174660e-02</leafValues></_>
        <_>
          <internalNodes>
            0 -1 57 -2.4744151160120964e-02</internalNodes>
          <leafValues>
            6.0741257667541504e-01 -1.0509917140007019e-01</leafValues></_>
        <_>
          <internalNodes>
            0 -1 75 -1.9030485302209854e-02</internalNodes>
          <leafValues>
            4.8697078227996826e-01 -1.0177842527627945e-01</leafValues></_>
        <_>
          <internalNodes>
            0 -1 149 1.5911576338112354e-03</internalNodes>
          <leafValues>
            -1.8299123644828796e-01 3.2431575655937195e-01</leafValues></_>
        <_>
          <internalNodes>
            0 -1 107 -2.1487725898623466e-03</internalNodes>
          <leafValues>
            4.0967482328414917e-01 -1.5064775943756104e-01</leafValues></_>
        <_>
          <internalNodes>
            0 -1 118 -2.5373674929141998e-02</internalNodes>
          <leafValues>
            1.6931451857089996e-01 -4.4269654154777527e-01</leafValues></_>
        <_>
          <internalNodes>
            0 -1 102 4.3317386880517006e-03</internalNodes>
          <leafValues>
            -2.0495790243148804e-01 3.1095731258392334e-01</leafValues></_>
        <_>
          <internalNodes>
            0 -1 99 -1.0515388846397400e-01</internalNodes>
          <leafValues>
            -3.2806351780891418e-01 1.6548521816730499e-01</leafValues></_>
        <_>
          <internalNodes>
            0 -1 200 -5.1877379883080721e-04</internalNodes>
          <leafValues>
            4.0048307180404663e-01 -1.3250556588172913e-01</leafValues></_>
        <_>
          <internalNodes>
            0 -1 13 -1.3395418226718903e-01</internalNodes>
          <leafValues>
            -8.7467479705810547e-01 7.6171576976776123e-02</leafValues></_>
        <_>
          <internalNodes>
            0 -1 137 -1.0674539953470230e-02</internalNodes>
          <leafValues>
            3.7347748875617981e-01 -1.6342957317829132e-01</leafValues></_>
        <_>
          <internalNodes>
            0 -1 63 -2.7738921344280243e-03</internalNodes>
          <leafValues>
            5.5428242683410645e-01 -1.1373332887887955e-01</leafValues></_>
        <_>
          <internalNodes>
            0 -1 244 -3.1045466661453247e-02</internalNodes>
          <leafValues>
            1.3519404828548431e-01 -4.3191832304000854e-01</leafValues></_>
        <_>
          <internalNodes>
            0 -1 128 -2.4937773123383522e-03</internalNodes>
          <leafValues>
            4.2340952157974243e-01 -1.4281754195690155e-01</leafValues></_>
        <_>
          <internalNodes>
            0 -1 186 7.6191883999854326e-04</internalNodes>
          <leafValues>
            -1.6161493957042694e-01 3.4757789969444275e-01</leafValues></_>
        <_>
          <internalNodes>
            0 -1 58 7.5400527566671371e-03</internalNodes>
          <leafValues>
            1.1021604388952255e-01 -5.4469740390777588e-01</leafValues></_>
        <_>
          <internalNodes>
            0 -1 61 -1.1638157302513719e-03</internalNodes>
          <leafValues>
            3.7380683422088623e-01 -1.8056580424308777e-01</leafValues></_>
        <_>
          <internalNodes>
            0 -1 126 -4.7711385414004326e-03</internalNodes>
          <leafValues>
            3.5746318101882935e-01 -1.5653942525386810e-01</leafValues></_>
        <_>
          <internalNodes>
            0 -1 68 -1.2265114113688469e-02</internalNodes>
          <leafValues>
            5.2069884538650513e-01 -1.1484322696924210e-01</leafValues></_>
        <_>
          <internalNodes>
            0 -1 194 8.1824697554111481e-03</internalNodes>
          <leafValues>
            1.0474255681037903e-01 -5.5282479524612427e-01</leafValues></_>
        <_>
          <internalNodes>
            0 -1 162 -2.1776156499981880e-03</internalNodes>
          <leafValues>
            4.4533920288085938e-01 -1.3491585850715637e-01</leafValues></_>
        <_>
          <internalNodes>
            0 -1 211 1.6065195202827454e-02</internalNodes>
          <leafValues>
            -1.4367955923080444e-01 3.8820362091064453e-01</leafValues></_>
        <_>
          <internalNodes>
            0 -1 136 3.0652480199933052e-03</internalNodes>
          <leafValues>
            -1.8156713247299194e-01 3.3807268738746643e-01</leafValues></_></weakClassifiers></_>
    <!-- stage 5 -->
    <_>
      <maxWeakCount>30</maxWeakCount>
      <stageThreshold>-1.2035491466522217e+00</stageThreshold>
      <weakClassifiers>
        <_>
          <internalNodes>
            0 -1 90 -6.6979736089706421e-02</internalNodes>
          <leafValues>
            -6.9956332445144653e-01 1.8181817606091499e-02</leafValues></_>
        <_>
          <internalNodes>
            0 -1 195 -1.1878127604722977e-01</internalNodes>
          <leafValues>
            -4.1406148672103882e-01 4.7228172421455383e-02</leafValues></_>
        <_>
          <internalNodes>
            0 -1 16 -1.1617052368819714e-03</internalNodes>
          <leafValues>
            -5.4794836044311523e-01 1.0941541939973831e-01</leafValues></_>
        <_>
          <internalNodes>
            0 -1 249 -1.2887048069387674e-03</internalNodes>
          <leafValues>
            -6.5118032693862915e-01 1.1797223240137100e-01</leafValues></_>
        <_>
          <internalNodes>
            0 -1 29 2.6602661237120628e-03</internalNodes>
          <leafValues>
            1.0177563875913620e-01 -4.8414456844329834e-01</leafValues></_>
        <_>
          <internalNodes>
            0 -1 33 4.7944495454430580e-03</internalNodes>
          <leafValues>
            -1.5224759280681610e-01 3.6159980297088623e-01</leafValues></_>
        <_>
          <internalNodes>
            0 -1 39 1.1440009111538529e-03</internalNodes>
          <leafValues>
            6.5061196684837341e-02 -7.2424846887588501e-01</leafValues></_>
        <_>
          <internalNodes>
            0 -1 154 -1.7947033047676086e-02</internalNodes>
          <leafValues>
            3.4014409780502319e-01 -1.5208193659782410e-01</leafValues></_>
        <_>
          <internalNodes>
            0 -1 43 -3.4066266380250454e-03</internalNodes>
          <leafValues>
            -7.5115489959716797e-01 6.5770365297794342e-02</leafValues></_>
        <_>
          <internalNodes>
            0 -1 9 2.1712021529674530e-01</internalNodes>
          <leafValues>
            8.0499835312366486e-02 -6.1147028207778931e-01</leafValues></_>
        <_>
          <internalNodes>
            0 -1 167 1.1090315878391266e-02</internalNodes>
          <leafValues>
            -7.9499319195747375e-02 6.8669098615646362e-01</leafValues></_>
        <_>
          <internalNodes>
            0 -1 173 1.5213471651077271e-01</internalNodes>
          <leafValues>
            -8.0446459352970123e-02 5.4601866006851196e-01</leafValues></_>
        <_>
          <internalNodes>
            0 -1 213 -2.8702819254249334e-03</internalNodes>
          <leafValues>
            4.2354884743690491e-01 -1.2018803507089615e-01</leafValues></_>
        <_>
          <internalNodes>
            0 -1 78 8.6049325764179230e-03</internalNodes>
          <leafValues>
            -9.0431116521358490e-02 5.3870242834091187e-01</leafValues></_>
        <_>
          <internalNodes>
            0 -1 151 -7.7491328120231628e-03</internalNodes>
          <leafValues>
            3.5770034790039063e-01 -1.3070952892303467e-01</leafValues></_>
        <_>
          <internalNodes>
            0 -1 100 -1.5860646963119507e-02</internalNodes>
          <leafValues>
            -3.7694606184959412e-01 1.5771412849426270e-01</leafValues></_>
        <_>
          <internalNodes>
            0 -1 252 -1.5948729589581490e-02</internalNodes>
          <leafValues>
            2.8648355603218079e-01 -2.1036043763160706e-01</leafValues></_>
        <_>
          <internalNodes>
            0 -1 238 1.0103634558618069e-03</internalNodes>
          <leafValues>
            1.4806482195854187e-01 -4.6535831689834595e-01</leafValues></_>
        <_>
          <internalNodes>
            0 -1 143 1.5655246097594500e-03</internalNodes>
          <leafValues>
            -1.6434578597545624e-01 3.6355400085449219e-01</leafValues></_>
        <_>
          <internalNodes>
            0 -1 243 -6.3485233113169670e-03</internalNodes>
          <leafValues>
            -6.9957822561264038e-01 8.0181978642940521e-02</leafValues></_>
        <_>
          <internalNodes>
            0 -1 247 7.1240798570215702e-04</internalNodes>
          <leafValues>
            1.5483076870441437e-01 -2.9924592375755310e-01</leafValues></_>
        <_>
          <internalNodes>
            0 -1 187 6.4934929832816124e-03</internalNodes>
          <leafValues>
            -1.1184363812208176e-01 4.6303999423980713e-01</leafValues></_>
        <_>
          <internalNodes>
            0 -1 223 6.5363667090423405e-05</internalNodes>
          <leafValues>
            -2.1386636793613434e-01 2.2693943977355957e-01</leafValues></_>
        <_>
          <internalNodes>
            0 -1 148 7.8165039420127869e-02</internalNodes>
          <leafValues>
            7.1130476891994476e-02 -7.0729887485504150e-01</leafValues></_>
        <_>
          <internalNodes>
            0 -1 116 1.7638591816648841e-03</internalNodes>
          <leafValues>
            -1.4004844427108765e-01 4.2873999476432800e-01</leafValues></_>
        <_>
          <internalNodes>
            0 -1 32 4.0156289469450712e-04</internalNodes>
          <leafValues>
            1.1658371984958649e-01 -4.6222609281539917e-01</leafValues></_>
        <_>
          <internalNodes>
            0 -1 67 8.9040759485214949e-04</internalNodes>
          <leafValues>
            1.0707699507474899e-01 -4.3361517786979675e-01</leafValues></_>
        <_>
          <internalNodes>
            0 -1 0 -7.2705964557826519e-03</internalNodes>
          <leafValues>
            -5.5509585142135620e-01 9.5342151820659637e-02</leafValues></_>
        <_>
          <internalNodes>
            0 -1 80 -2.0629279315471649e-02</internalNodes>
          <leafValues>
            3.0679592490196228e-01 -1.6608615219593048e-01</leafValues></_>
        <_>
          <internalNodes>
            0 -1 38 2.4225417524576187e-02</internalNodes>
          <leafValues>
            -1.2157189100980759e-01 4.0816473960876465e-01</leafValues></_></weakClassifiers></_>
    <!-- stage 6 -->
    <_>
      <maxWeakCount>31</maxWeakCount>
      <stageThreshold>-1.3516153097152710e+00</stageThreshold>
      <weakClassifiers>
        <_>
          <internalNodes>
            0 -1 73 -2.4397093057632446e-01</internalNodes>
          <leafValues>
            1. -6.7926114797592163e-01</leafValues></_>
        <_>
          <internalNodes>
            0 -1 193 2.4406787008047104e-02</internalNodes>
          <leafValues>
            -3.0456557869911194e-01 1.6820295155048370e-01</leafValues></_>
        <_>
          <internalNodes>
            0 -1 18 -1.5103676123544574e-03</internalNodes>
          <leafValues>
            -5.7181966304779053e-01 8.6264565587043762e-02</leafValues></_>
        <_>
          <internalNodes>
            0 -1 215 -5.1512392237782478e-03</internalNodes>
          <leafValues>
            5.0777655839920044e-01 -8.2516625523567200e-02</leafValues></_>
        <_>
          <internalNodes>
            0 -1 21 1.0214565321803093e-02</internalNodes>
          <leafValues>
            7.0531994104385376e-02 -9.1481131315231323e-01</leafValues></_>
        <_>
          <internalNodes>
            0 -1 165 -3.1038837507367134e-02</internalNodes>
          <leafValues>
            -1.8898247182369232e-01 2.9036399722099304e-01</leafValues></_>
        <_>
          <internalNodes>
            0 -1 138 9.0346615761518478e-03</internalNodes>
          <leafValues>
            -1.1378517001867294e-01 3.9215478301048279e-01</leafValues></_>
        <_>
          <internalNodes>
            0 -1 245 -2.0834696479141712e-03</internalNodes>
          <leafValues>
            -5.0343364477157593e-01 8.9941672980785370e-02</leafValues></_>
        <_>
          <internalNodes>
            0 -1 106 -4.5167789794504642e-03</internalNodes>
          <leafValues>
            3.4130117297172546e-01 -1.3804741203784943e-01</leafValues></_>
        <_>
          <internalNodes>
            0 -1 84 6.7798793315887451e-03</internalNodes>
          <leafValues>
            5.8356322348117828e-02 -7.8666889667510986e-01</leafValues></_>
        <_>
          <internalNodes>
            0 -1 125 5.8948555961251259e-03</internalNodes>
          <leafValues>
            -8.2135856151580811e-02 7.0425677299499512e-01</leafValues></_>
        <_>
          <internalNodes>
            0 -1 45 1.5042488230392337e-03</internalNodes>
          <leafValues>
            -1.9885212182998657e-01 2.4155005812644958e-01</leafValues></_>
        <_>
          <internalNodes>
            0 -1 56 -4.4553922489285469e-03</internalNodes>
          <leafValues>
            3.7549883127212524e-01 -1.3249734044075012e-01</leafValues></_>
        <_>
          <internalNodes>
            0 -1 11 1.8279051780700684e-01</internalNodes>
          <leafValues>
            -6.6098064184188843e-02 6.9218665361404419e-01</leafValues></_>
        <_>
          <internalNodes>
            0 -1 79 -3.5806912928819656e-03</internalNodes>
          <leafValues>
            2.4583180248737335e-01 -2.1367619931697845e-01</leafValues></_>
        <_>
          <internalNodes>
            0 -1 53 2.5819614529609680e-03</internalNodes>
          <leafValues>
            1.1236828565597534e-01 -4.2549625039100647e-01</leafValues></_>
        <_>
          <internalNodes>
            0 -1 92 -4.9232006072998047e-02</internalNodes>
          <leafValues>
            -2.0398652553558350e-01 2.5867900252342224e-01</leafValues></_>
        <_>
          <internalNodes>
            0 -1 199 -3.2288220245391130e-04</internalNodes>
          <leafValues>
            2.0952856540679932e-01 -2.4578896164894104e-01</leafValues></_>
        <_>
          <internalNodes>
            0 -1 66 7.7933989814482629e-05</internalNodes>
          <leafValues>
            -2.5475001335144043e-01 1.9215025007724762e-01</leafValues></_>
        <_>
          <internalNodes>
            0 -1 19 3.0021001584827900e-03</internalNodes>
          <leafValues>
            -1.2229122221469879e-01 4.3249598145484924e-01</leafValues></_>
        <_>
          <internalNodes>
            0 -1 48 9.3349539383780211e-05</internalNodes>
          <leafValues>
            1.6899536550045013e-01 -2.9891261458396912e-01</leafValues></_>
        <_>
          <internalNodes>
            0 -1 152 -3.1887767836451530e-03</internalNodes>
          <leafValues>
            2.4134053289890289e-01 -1.9035933911800385e-01</leafValues></_>
        <_>
          <internalNodes>
            0 -1 227 -3.3928904682397842e-02</internalNodes>
          <leafValues>
            -7.8345441818237305e-01 6.5765589475631714e-02</leafValues></_>
        <_>
          <internalNodes>
            0 -1 206 3.7028652150183916e-03</internalNodes>
          <leafValues>
            -1.1323796957731247e-01 4.8213174939155579e-01</leafValues></_>
        <_>
          <internalNodes>
            0 -1 117 2.4181004613637924e-02</internalNodes>
          <leafValues>
            1.0075482726097107e-01 -5.1570695638656616e-01</leafValues></_>
        <_>
          <internalNodes>
            0 -1 89 -6.0939574614167213e-03</internalNodes>
          <leafValues>
            3.8197439908981323e-01 -1.2827005982398987e-01</leafValues></_>
        <_>
          <internalNodes>
            0 -1 236 -9.8673216998577118e-03</internalNodes>
          <leafValues>
            4.8775501549243927e-02 -1.</leafValues></_>
        <_>
          <internalNodes>
            0 -1 155 2.5158267468214035e-02</internalNodes>
          <leafValues>
            -1.0003709793090820e-01 5.2488714456558228e-01</leafValues></_>
        <_>
          <internalNodes>
            0 -1 46 1.0913463309407234e-02</internalNodes>
          <leafValues>
            1.1732168495655060e-01 -4.2437362670898438e-01</leafValues></_>
        <_>
          <internalNodes>
            0 -1 64 8.5058185504749417e-04</internalNodes>
          <leafValues>
            -1.6324700415134430e-01 3.0387496948242188e-01</leafValues></_>
        <_>
          <internalNodes>
            0 -1 246 7.2312741540372372e-03</internalNodes>
          <leafValues>
            6.7183107137680054e-02 -6.9224965572357178e-01</leafValues></_></weakClassifiers></_>
    <!-- stage 7 -->
    <_>
      <maxWeakCount>32</maxWeakCount>
      <stageThreshold>-1.2669479846954346e+00</stageThreshold>
      <weakClassifiers>
        <_>
          <internalNodes>
            0 -1 42 -6.2528602778911591e-02</internalNodes>
          <leafValues>
            -1.7948718369007111e-01 -7.0053476095199585e-01</leafValues></_>
        <_>
          <internalNodes>
            0 -1 98 -3.5062387585639954e-02</internalNodes>
          <leafValues>
            1.5522001683712006e-01 -2.7854254841804504e-01</leafValues></_>
        <_>
          <internalNodes>
            0 -1 95 -2.0265799760818481e-01</internalNodes>
          <leafValues>
            -4.0990966558456421e-01 9.6025042235851288e-02</leafValues></_>
        <_>
          <internalNodes>
            0 -1 166 2.9928334988653660e-03</internalNodes>
          <leafValues>
            4.0110982954502106e-02 -8.1806212663650513e-01</leafValues></_>
        <_>
          <internalNodes>
            0 -1 153 -2.1436458826065063e-01</internalNodes>
          <leafValues>
            1.5038442611694336e-01 -3.0471190810203552e-01</leafValues></_>
        <_>
          <internalNodes>
            0 -1 157 -1.7241092398762703e-02</internalNodes>
          <leafValues>
            -2.0064274966716766e-01 2.0775856077671051e-01</leafValues></_>
        <_>
          <internalNodes>
            0 -1 14 -6.1601866036653519e-04</internalNodes>
          <leafValues>
            -3.1268295645713806e-01 1.3605585694313049e-01</leafValues></_>
        <_>
          <internalNodes>
            0 -1 24 -1.0805206373333931e-02</internalNodes>
          <leafValues>
            -5.1243805885314941e-01 9.8014518618583679e-02</leafValues></_>
        <_>
          <internalNodes>
            0 -1 197 -5.8792321942746639e-04</internalNodes>
          <leafValues>
            2.8314903378486633e-01 -1.4803269505500793e-01</leafValues></_>
        <_>
          <internalNodes>
            0 -1 208 1.3626930303871632e-03</internalNodes>
          <leafValues>
            -1.3367341458797455e-01 3.0603262782096863e-01</leafValues></_>
        <_>
          <internalNodes>
            0 -1 240 4.0733953937888145e-04</internalNodes>
          <leafValues>
            8.1796921789646149e-02 -4.8584344983100891e-01</leafValues></_>
        <_>
          <internalNodes>
            0 -1 212 -8.0254336353391409e-04</internalNodes>
          <leafValues>
            2.9602819681167603e-01 -1.3725827634334564e-01</leafValues></_>
        <_>
          <internalNodes>
            0 -1 205 -3.1803259626030922e-03</internalNodes>
          <leafValues>
            3.6591184139251709e-01 -1.1167035996913910e-01</leafValues></_>
        <_>
          <internalNodes>
            0 -1 112 -2.8736703097820282e-03</internalNodes>
          <leafValues>
            3.0839669704437256e-01 -1.2919098138809204e-01</leafValues></_>
        <_>
          <internalNodes>
            0 -1 172 3.9181813597679138e-02</internalNodes>
          <leafValues>
            -8.0309949815273285e-02 5.3581708669662476e-01</leafValues></_>
        <_>
          <internalNodes>
            0 -1 160 -5.7424094527959824e-02</internalNodes>
          <leafValues>
            6.1288189142942429e-02 -8.6101305484771729e-01</leafValues></_>
        <_>
          <internalNodes>
            0 -1 101 -1.0636381804943085e-02</internalNodes>
          <leafValues>
            5.0704032182693481e-01 -9.5693834125995636e-02</leafValues></_>
        <_>
          <internalNodes>
            0 -1 174 2.7493725065141916e-04</internalNodes>
          <leafValues>
            -1.6055575013160706e-01 2.7903708815574646e-01</leafValues></_>
        <_>
          <internalNodes>
            0 -1 129 -1.8160140141844749e-02</internalNodes>
          <leafValues>
            -1.5272474288940430e-01 2.8605666756629944e-01</leafValues></_>
        <_>
          <internalNodes>
            0 -1 31 6.4680919051170349e-02</internalNodes>
          <leafValues>
            -1.3201244175434113e-01 4.4901096820831299e-01</leafValues></_>
        <_>
          <internalNodes>
            0 -1 96 -2.2223335690796375e-04</internalNodes>
          <leafValues>
            2.8610724210739136e-01 -1.4920502901077271e-01</leafValues></_>
        <_>
          <internalNodes>
            0 -1 221 8.4474909817799926e-04</internalNodes>
          <leafValues>
            -1.3300219178199768e-01 3.0281537771224976e-01</leafValues></_>
        <_>
          <internalNodes>
            0 -1 37 -3.3690817654132843e-02</internalNodes>
          <leafValues>
            -2.4058708548545837e-01 1.7296361923217773e-01</leafValues></_>
        <_>
          <internalNodes>
            0 -1 185 -2.4979326128959656e-01</internalNodes>
          <leafValues>
            2.8585654497146606e-01 -1.5054723620414734e-01</leafValues></_>
        <_>
          <internalNodes>
            0 -1 70 -1.3686869293451309e-02</internalNodes>
          <leafValues>
            -8.1648841500282288e-02 5.9030485153198242e-01</leafValues></_>
        <_>
          <internalNodes>
            0 -1 202 -6.5894564613699913e-04</internalNodes>
          <leafValues>
            -4.0699872374534607e-01 1.1641783267259598e-01</leafValues></_>
        <_>
          <internalNodes>
            0 -1 196 -2.3883633315563202e-02</internalNodes>
          <leafValues>
            5.0049471855163574e-01 -9.1162577271461487e-02</leafValues></_>
        <_>
          <internalNodes>
            0 -1 104 1.3458615168929100e-02</internalNodes>
          <leafValues>
            -1.1235017329454422e-01 4.1692429780960083e-01</leafValues></_>
        <_>
          <internalNodes>
            0 -1 175 -4.7774678096175194e-03</internalNodes>
          <leafValues>
            3.7293547391891479e-01 -1.1582759767770767e-01</leafValues></_>
        <_>
          <internalNodes>
            0 -1 209 1.6378241125494242e-03</internalNodes>
          <leafValues>
            8.9775808155536652e-02 -4.8734739422798157e-01</leafValues></_>
        <_>
          <internalNodes>
            0 -1 20 1.1048132553696632e-02</internalNodes>
          <leafValues>
            5.1877297461032867e-02 -6.7785495519638062e-01</leafValues></_>
        <_>
          <internalNodes>
            0 -1 224 -3.9561592042446136e-02</internalNodes>
          <leafValues>
            -9.5280706882476807e-01 3.3345423638820648e-02</leafValues></_></weakClassifiers></_>
    <!-- stage 8 -->
    <_>
      <maxWeakCount>29</maxWeakCount>
      <stageThreshold>-1.1352316141128540e+00</stageThreshold>
      <weakClassifiers>
        <_>
          <internalNodes>
            0 -1 123 -2.8646416962146759e-02</internalNodes>
          <leafValues>
            3.6842104792594910e-01 -6.8331921100616455e-01</leafValues></_>
        <_>
          <internalNodes>
            0 -1 121 -1.1615958064794540e-02</internalNodes>
          <leafValues>
            -2.3070089519023895e-01 3.1518241763114929e-01</leafValues></_>
        <_>
          <internalNodes>
            0 -1 3 -1.7331480979919434e-01</internalNodes>
          <leafValues>
            5.9841774404048920e-02 -7.1443140506744385e-01</leafValues></_>
        <_>
          <internalNodes>
            0 -1 251 -4.9520097672939301e-04</internalNodes>
          <leafValues>
            -3.4461337327957153e-01 1.4734573662281036e-01</leafValues></_>
        <_>
          <internalNodes>
            0 -1 198 -1.5139385126531124e-02</internalNodes>
          <leafValues>
            3.0258646607398987e-01 -1.3695035874843597e-01</leafValues></_>
        <_>
          <internalNodes>
            0 -1 24 7.5294431298971176e-03</internalNodes>
          <leafValues>
            7.2562023997306824e-02 -5.3007888793945313e-01</leafValues></_>
        <_>
          <internalNodes>
            0 -1 108 -1.5174908563494682e-02</internalNodes>
          <leafValues>
            5.3222787380218506e-01 -6.9979086518287659e-02</leafValues></_>
        <_>
          <internalNodes>
            0 -1 15 4.4926274567842484e-03</internalNodes>
          <leafValues>
            1.0515476018190384e-01 -5.4190385341644287e-01</leafValues></_>
        <_>
          <internalNodes>
            0 -1 145 -7.0303361862897873e-03</internalNodes>
          <leafValues>
            -2.2222404181957245e-01 1.9851799309253693e-01</leafValues></_>
        <_>
          <internalNodes>
            0 -1 163 -2.2348170168697834e-03</internalNodes>
          <leafValues>
            2.6139038801193237e-01 -1.8215362727642059e-01</leafValues></_>
        <_>
          <internalNodes>
            0 -1 146 -4.6579446643590927e-03</internalNodes>
          <leafValues>
            4.1105487942695618e-01 -9.8245859146118164e-02</leafValues></_>
        <_>
          <internalNodes>
            0 -1 40 -1.0834371671080589e-02</internalNodes>
          <leafValues>
            3.9481481909751892e-01 -1.0245515406131744e-01</leafValues></_>
        <_>
          <internalNodes>
            0 -1 74 1.0873536020517349e-01</internalNodes>
          <leafValues>
            4.5693729072809219e-02 -9.3597280979156494e-01</leafValues></_>
        <_>
          <internalNodes>
            0 -1 225 -1.7261680215597153e-02</internalNodes>
          <leafValues>
            -7.4997150897979736e-01 4.3037999421358109e-02</leafValues></_>
        <_>
          <internalNodes>
            0 -1 178 8.2767084240913391e-02</internalNodes>
          <leafValues>
            3.2181266695261002e-02 -9.4297331571578979e-01</leafValues></_>
        <_>
          <internalNodes>
            0 -1 231 -4.9848556518554688e-03</internalNodes>
          <leafValues>
            2.7613851428031921e-01 -1.5594926476478577e-01</leafValues></_>
        <_>
          <internalNodes>
            0 -1 55 -3.7454926967620850e-01</internalNodes>
          <leafValues>
            1.5078330039978027e-01 -2.7925994992256165e-01</leafValues></_>
        <_>
          <internalNodes>
            0 -1 85 8.0915512517094612e-03</internalNodes>
          <leafValues>
            -1.7963303625583649e-01 2.4736517667770386e-01</leafValues></_>
        <_>
          <internalNodes>
            0 -1 144 -8.6574032902717590e-02</internalNodes>
          <leafValues>
            -2.0941147208213806e-01 2.4188697338104248e-01</leafValues></_>
        <_>
          <internalNodes>
            0 -1 6 -9.5569957047700882e-03</internalNodes>
          <leafValues>
            3.7867343425750732e-01 -1.1462438106536865e-01</leafValues></_>
        <_>
          <internalNodes>
            0 -1 69 4.1040845215320587e-02</internalNodes>
          <leafValues>
            -2.2091494500637054e-01 2.4354195594787598e-01</leafValues></_>
        <_>
          <internalNodes>
            0 -1 228 3.8382015191018581e-03</internalNodes>
          <leafValues>
            -1.5575005114078522e-01 2.9704731702804565e-01</leafValues></_>
        <_>
          <internalNodes>
            0 -1 192 5.8197358157485723e-04</internalNodes>
          <leafValues>
            -1.2786978483200073e-01 3.4278881549835205e-01</leafValues></_>
        <_>
          <internalNodes>
            0 -1 161 -1.2960829772055149e-03</internalNodes>
          <leafValues>
            2.5397706031799316e-01 -1.6326473653316498e-01</leafValues></_>
        <_>
          <internalNodes>
            0 -1 168 -8.1243319436907768e-03</internalNodes>
          <leafValues>
            -7.5366759300231934e-01 5.0279777497053146e-02</leafValues></_>
        <_>
          <internalNodes>
            0 -1 124 -7.6448381878435612e-04</internalNodes>
          <leafValues>
            2.1815752983093262e-01 -2.0196537673473358e-01</leafValues></_>
        <_>
          <internalNodes>
            0 -1 93 -7.1453273296356201e-02</internalNodes>
          <leafValues>
            5.3054344654083252e-01 -8.7332352995872498e-02</leafValues></_>
        <_>
          <internalNodes>
            0 -1 41 8.3347074687480927e-03</internalNodes>
          <leafValues>
            -1.3228632509708405e-01 3.1292262673377991e-01</leafValues></_>
        <_>
          <internalNodes>
            0 -1 71 7.6712416484951973e-03</internalNodes>
          <leafValues>
            -9.1173678636550903e-02 4.6112167835235596e-01</leafValues></_></weakClassifiers></_>
    <!-- stage 9 -->
    <_>
      <maxWeakCount>34</maxWeakCount>
      <stageThreshold>-1.0850694179534912e+00</stageThreshold>
      <weakClassifiers>
        <_>
          <internalNodes>
            0 -1 8 7.9587578773498535e-02</internalNodes>
          <leafValues>
            -6.8697124719619751e-01 6.6666668653488159e-01</leafValues></_>
        <_>
          <internalNodes>
            0 -1 220 9.7247376106679440e-04</internalNodes>
          <leafValues>
            -2.8556985780596733e-02 -4.0054741501808167e-01</leafValues></_>
        <_>
          <internalNodes>
            0 -1 23 -5.4129562340676785e-04</internalNodes>
          <leafValues>
            -3.4566050767898560e-01 9.3458965420722961e-02</leafValues></_>
        <_>
          <internalNodes>
            0 -1 82 6.4709614962339401e-03</internalNodes>
          <leafValues>
            -1.5397004783153534e-01 2.2216150164604187e-01</leafValues></_>
        <_>
          <internalNodes>
            0 -1 150 9.9003359675407410e-02</internalNodes>
          <leafValues>
            3.5147540271282196e-02 -6.5281140804290771e-01</leafValues></_>
        <_>
          <internalNodes>
            0 -1 22 -5.7654336094856262e-02</internalNodes>
          <leafValues>
            8.8417351245880127e-02 -5.3864967823028564e-01</leafValues></_>
        <_>
          <internalNodes>
            0 -1 131 -3.0382502824068069e-02</internalNodes>
          <leafValues>
            -1.4201982319355011e-01 2.5464451313018799e-01</leafValues></_>
        <_>
          <internalNodes>
            0 -1 12 -4.5641303062438965e-01</internalNodes>
          <leafValues>
            2.3299787938594818e-01 -1.7532166838645935e-01</leafValues></_>
        <_>
          <internalNodes>
            0 -1 119 -9.4930842518806458e-02</internalNodes>
          <leafValues>
            -1.7427802085876465e-01 2.3324596881866455e-01</leafValues></_>
        <_>
          <internalNodes>
            0 -1 140 -7.2010606527328491e-04</internalNodes>
          <leafValues>
            2.7577605843544006e-01 -1.4193494617938995e-01</leafValues></_>
        <_>
          <internalNodes>
            0 -1 28 3.1542361830361187e-04</internalNodes>
          <leafValues>
            1.2026370316743851e-01 -3.0086678266525269e-01</leafValues></_>
        <_>
          <internalNodes>
            0 -1 219 1.7426477279514074e-03</internalNodes>
          <leafValues>
            7.5394310057163239e-02 -4.4019213318824768e-01</leafValues></_>
        <_>
          <internalNodes>
            0 -1 229 -1.2965220957994461e-03</internalNodes>
          <leafValues>
            3.6970445513725281e-01 -9.8095946013927460e-02</leafValues></_>
        <_>
          <internalNodes>
            0 -1 235 -2.4746201233938336e-04</internalNodes>
          <leafValues>
            -3.1266272068023682e-01 1.2080059200525284e-01</leafValues></_>
        <_>
          <internalNodes>
            0 -1 169 -4.8608975484967232e-03</internalNodes>
          <leafValues>
            3.7128776311874390e-01 -1.0524271428585052e-01</leafValues></_>
        <_>
          <internalNodes>
            0 -1 2 9.2518201563507318e-04</internalNodes>
          <leafValues>
            9.7705945372581482e-02 -3.8538956642150879e-01</leafValues></_>
        <_>
          <internalNodes>
            0 -1 36 7.5094279600307345e-04</internalNodes>
          <leafValues>
            -1.8566143512725830e-01 1.9156214594841003e-01</leafValues></_>
        <_>
          <internalNodes>
            0 -1 222 1.2351075187325478e-02</internalNodes>
          <leafValues>
            9.2599242925643921e-02 -4.0697684884071350e-01</leafValues></_>
        <_>
          <internalNodes>
            0 -1 191 1.5542159962933511e-04</internalNodes>
          <leafValues>
            1.4098511636257172e-01 -2.8870138525962830e-01</leafValues></_>
        <_>
          <internalNodes>
            0 -1 181 6.7269550636410713e-03</internalNodes>
          <leafValues>
            -9.2197455465793610e-02 4.7797852754592896e-01</leafValues></_>
        <_>
          <internalNodes>
            0 -1 83 -2.8493348509073257e-04</internalNodes>
          <leafValues>
            2.7510631084442139e-01 -1.4179648458957672e-01</leafValues></_>
        <_>
          <internalNodes>
            0 -1 207 -2.5767728220671415e-03</internalNodes>
          <leafValues>
            -4.6726220846176147e-01 9.1990880668163300e-02</leafValues></_>
        <_>
          <internalNodes>
            0 -1 190 2.7790170162916183e-02</internalNodes>
          <leafValues>
            -1.0156140476465225e-01 4.3069669604301453e-01</leafValues></_>
        <_>
          <internalNodes>
            0 -1 184 -8.7641604477539659e-04</internalNodes>
          <leafValues>
            3.9103072881698608e-01 -1.0906922817230225e-01</leafValues></_>
        <_>
          <internalNodes>
            0 -1 250 7.4552930891513824e-04</internalNodes>
          <leafValues>
            8.5239104926586151e-02 -5.3104078769683838e-01</leafValues></_>
        <_>
          <internalNodes>
            0 -1 4 1.8019779818132520e-03</internalNodes>
          <leafValues>
            -2.0028477907180786e-01 1.9322794675827026e-01</leafValues></_>
        <_>
          <internalNodes>
            0 -1 201 -2.6466967537999153e-03</internalNodes>
          <leafValues>
            3.9203621447086334e-02 -8.9432924985885620e-01</leafValues></_>
        <_>
          <internalNodes>
            0 -1 130 -2.0955853164196014e-02</internalNodes>
          <leafValues>
            -2.2949355840682983e-01 1.6599372029304504e-01</leafValues></_>
        <_>
          <internalNodes>
            0 -1 182 -4.3509405804798007e-04</internalNodes>
          <leafValues>
            2.3058894276618958e-01 -1.6745112836360931e-01</leafValues></_>
        <_>
          <internalNodes>
            0 -1 134 -1.5866896137595177e-03</internalNodes>
          <leafValues>
            2.9129886627197266e-01 -1.2604926526546478e-01</leafValues></_>
        <_>
          <internalNodes>
            0 -1 7 2.9274648427963257e-01</internalNodes>
          <leafValues>
            -4.6663239598274231e-02 8.2154172658920288e-01</leafValues></_>
        <_>
          <internalNodes>
            0 -1 170 -3.9439179003238678e-02</internalNodes>
          <leafValues>
            -7.0514388382434845e-02 4.7597214579582214e-01</leafValues></_>
        <_>
          <internalNodes>
            0 -1 230 3.9270191336981952e-04</internalNodes>
          <leafValues>
            -1.8112747371196747e-01 2.0418766140937805e-01</leafValues></_>
        <_>
          <internalNodes>
            0 -1 105 1.6862195916473866e-03</internalNodes>
          <leafValues>
            -9.4836495816707611e-02 4.0516856312751770e-01</leafValues></_></weakClassifiers></_></stages>
  <features>
    <_>
      <rects>
        <_>
          0 0 12 1 -1.</_>
        <_>
          6 0 6 1 2.</_></rects>
      <tilted>0</tilted></_>
    <_>
      <rects>
        <_>
          0 0 24 24 -1.</_>
        <_>
          12 0 12 24 2.</_></rects>
      <tilted>0</tilted></_>
    <_>
      <rects>
        <_>
          0 1 2 2 -1.</_>
        <_>
          0 2 2 1 2.</_></rects>
      <tilted>0</tilted></_>
    <_>
      <rects>
        <_>
          0 1 8 18 -1.</_>
        <_>
          0 7 8 6 2.</_></rects>
      <tilted>0</tilted></_>
    <_>
      <rects>
        <_>
          0 2 12 2 -1.</_>
        <_>
          0 2 6 1 2.</_>
        <_>
          6 3 6 1 2.</_></rects>
      <tilted>0</tilted></_>
    <_>
      <rects>
        <_>
          0 3 17 20 -1.</_>
        <_>
          0 13 17 10 2.</_></rects>
      <tilted>0</tilted></_>
    <_>
      <rects>
        <_>
          0 4 21 2 -1.</_>
        <_>
          0 5 21 1 2.</_></rects>
      <tilted>0</tilted></_>
    <_>
      <rects>
        <_>
          0 5 16 16 -1.</_>
        <_>
          8 5 8 16 2.</_></rects>
      <tilted>0</tilted></_>
    <_>
      <rects>
        <_>
          0 5 18 2 -1.</_>
        <_>
          9 5 9 2 2.</_></rects>
      <tilted>0</tilted></_>
    <_>
      <rects>
        <_>
          0 5 22 16 -1.</_>
        <_>
          11 5 11 16 2.</_></rects>
      <tilted>0</tilted></_>
    <_>
      <rects>
        <_>
          0 6 4 6 -1.</_>
        <_>
          0 9 4 3 2.</_></rects>
      <tilted>0</tilted></_>
    <_>
      <rects>
        <_>
          0 6 12 15 -1.</_>
        <_>
          6 6 6 15 2.</_></rects>
      <tilted>0</tilted></_>
    <_>
      <rects>
        <_>
          0 7 21 9 -1.</_>
        <_>
          7 7 7 9 2.</_></rects>
      <tilted>0</tilted></_>
    <_>
      <rects>
        <_>
          0 10 24 10 -1.</_>
        <_>
          0 10 12 5 2.</_>
        <_>
          12 15 12 5 2.</_></rects>
      <tilted>0</tilted></_>
    <_>
      <rects>
        <_>
          0 12 2 9 -1.</_>
        <_>
          1 12 1 9 2.</_></rects>
      <tilted>0</tilted></_>
    <_>
      <rects>
        <_>
          0 12 2 12 -1.</_>
        <_>
          1 12 1 12 2.</_></rects>
      <tilted>0</tilted></_>
    <_>
      <rects>
        <_>
          0 13 2 3 -1.</_>
        <_>
          1 13 1 3 2.</_></rects>
      <tilted>0</tilted></_>
    <_>
      <rects>
        <_>
          0 14 10 4 -1.</_>
        <_>
          5 14 5 4 2.</_></rects>
      <tilted>0</tilted></_>
    <_>
      <rects>
        <_>
          0 16 2 4 -1.</_>
        <_>
          0 16 1 2 2.</_>
        <_>
          1 18 1 2 2.</_></rects>
      <tilted>0</tilted></_>
    <_>
      <rects>
        <_>
          0 16 8 2 -1.</_>
        <_>
          0 16 4 1 2.</_>
        <_>
          4 17 4 1 2.</_></rects>
      <tilted>0</tilted></_>
    <_>
      <rects>
        <_>
          0 17 3 4 -1.</_>
        <_>
          0 19 3 2 2.</_></rects>
      <tilted>0</tilted></_>
    <_>
      <rects>
        <_>
          0 19 4 4 -1.</_>
        <_>
          2 19 2 4 2.</_></rects>
      <tilted>0</tilted></_>
    <_>
      <rects>
        <_>
          0 19 12 4 -1.</_>
        <_>
          4 19 4 4 2.</_></rects>
      <tilted>0</tilted></_>
    <_>
      <rects>
        <_>
          0 22 2 2 -1.</_>
        <_>
          1 22 1 2 2.</_></rects>
      <tilted>0</tilted></_>
    <_>
      <rects>
        <_>
          0 23 12 1 -1.</_>
        <_>
          6 23 6 1 2.</_></rects>
      <tilted>0</tilted></_>
    <_>
      <rects>
        <_>
          1 0 2 2 -1.</_>
        <_>
          2 0 1 2 2.</_></rects>
      <tilted>0</tilted></_>
    <_>
      <rects>
        <_>
          1 0 2 3 -1.</_>
        <_>
          2 0 1 3 2.</_></rects>
      <tilted>0</tilted></_>
    <_>
      <rects>
        <_>
          1 0 6 1 -1.</_>
        <_>
          4 0 3 1 2.</_></rects>
      <tilted>0</tilted></_>
    <_>
      <rects>
        <_>
          1 1 2 2 -1.</_>
        <_>
          2 1 1 2 2.</_></rects>
      <tilted>0</tilted></_>
    <_>
      <rects>
        <_>
          1 3 2 9 -1.</_>
        <_>
          2 3 1 9 2.</_></rects>
      <tilted>0</tilted></_>
    <_>
      <rects>
        <_>
          1 4 2 18 -1.</_>
        <_>
          1 10 2 6 2.</_></rects>
      <tilted>0</tilted></_>
    <_>
      <rects>
        <_>
          1 4 8 15 -1.</_>
        <_>
          5 4 4 15 2.</_></rects>
      <tilted>0</tilted></_>
    <_>
      <rects>
        <_>
          1 13 2 1 -1.</_>
        <_>
          2 13 1 1 2.</_></rects>
      <tilted>0</tilted></_>
    <_>
      <rects>
        <_>
          1 14 13 2 -1.</_>
        <_>
          1 15 13 1 2.</_></rects>
      <tilted>0</tilted></_>
    <_>
      <rects>
        <_>
          1 23 14 1 -1.</_>
        <_>
          8 23 7 1 2.</_></rects>
      <tilted>0</tilted></_>
    <_>
      <rects>
        <_>
          2 3 10 6 -1.</_>
        <_>
          2 5 10 2 2.</_></rects>
      <tilted>0</tilted></_>
    <_>
      <rects>
        <_>
          2 4 4 6 -1.</_>
        <_>
          2 4 2 3 2.</_>
        <_>
          4 7 2 3 2.</_></rects>
      <tilted>0</tilted></_>
    <_>
      <rects>
        <_>
          2 5 18 10 -1.</_>
        <_>
          2 5 9 5 2.</_>
        <_>
          11 10 9 5 2.</_></rects>
      <tilted>0</tilted></_>
    <_>
      <rects>
        <_>
          2 12 12 6 -1.</_>
        <_>
          2 12 6 3 2.</_>
        <_>
          8 15 6 3 2.</_></rects>
      <tilted>0</tilted></_>
    <_>
      <rects>
        <_>
          2 13 2 2 -1.</_>
        <_>
          2 13 1 1 2.</_>
        <_>
          3 14 1 1 2.</_></rects>
      <tilted>0</tilted></_>
    <_>
      <rects>
        <_>
          2 14 4 8 -1.</_>
        <_>
          2 14 2 4 2.</_>
        <_>
          4 18 2 4 2.</_></rects>
      <tilted>0</tilted></_>
    <_>
      <rects>
        <_>
          2 16 8 6 -1.</_>
        <_>
          2 16 4 3 2.</_>
        <_>
          6 19 4 3 2.</_></rects>
      <tilted>0</tilted></_>
    <_>
      <rects>
        <_>
          2 17 13 6 -1.</_>
        <_>
          2 20 13 3 2.</_></rects>
      <tilted>0</tilted></_>
    <_>
      <rects>
        <_>
          2 20 2 4 -1.</_>
        <_>
          3 20 1 4 2.</_></rects>
      <tilted>0</tilted></_>
    <_>
      <rects>
        <_>
          2 20 22 4 -1.</_>
        <_>
          13 20 11 4 2.</_></rects>
      <tilted>0</tilted></_>
    <_>
      <rects>
        <_>
          2 22 9 2 -1.</_>
        <_>
          2 23 9 1 2.</_></rects>
      <tilted>0</tilted></_>
    <_>
      <rects>
        <_>
          2 22 22 1 -1.</_>
        <_>
          13 22 11 1 2.</_></rects>
      <tilted>0</tilted></_>
    <_>
      <rects>
        <_>
          3 0 20 4 -1.</_>
        <_>
          3 2 20 2 2.</_></rects>
      <tilted>0</tilted></_>
    <_>
      <rects>
        <_>
          3 1 2 2 -1.</_>
        <_>
          4 1 1 2 2.</_></rects>
      <tilted>0</tilted></_>
    <_>
      <rects>
        <_>
          3 3 8 6 -1.</_>
        <_>
          3 3 4 3 2.</_>
        <_>
          7 6 4 3 2.</_></rects>
      <tilted>0</tilted></_>
    <_>
      <rects>
        <_>
          3 3 11 10 -1.</_>
        <_>
          3 8 11 5 2.</_></rects>
      <tilted>0</tilted></_>
    <_>
      <rects>
        <_>
          3 7 12 6 -1.</_>
        <_>
          3 7 6 3 2.</_>
        <_>
          9 10 6 3 2.</_></rects>
      <tilted>0</tilted></_>
    <_>
      <rects>
        <_>
          3 9 11 12 -1.</_>
        <_>
          3 13 11 4 2.</_></rects>
      <tilted>0</tilted></_>
    <_>
      <rects>
        <_>
          3 11 4 2 -1.</_>
        <_>
          5 11 2 2 2.</_></rects>
      <tilted>0</tilted></_>
    <_>
      <rects>
        <_>
          3 12 6 6 -1.</_>
        <_>
          3 12 3 3 2.</_>
        <_>
          6 15 3 3 2.</_></rects>
      <tilted>0</tilted></_>
    <_>
      <rects>
        <_>
          3 12 18 11 -1.</_>
        <_>
          9 12 6 11 2.</_></rects>
      <tilted>0</tilted></_>
    <_>
      <rects>
        <_>
          3 14 12 2 -1.</_>
        <_>
          3 14 6 1 2.</_>
        <_>
          9 15 6 1 2.</_></rects>
      <tilted>0</tilted></_>
    <_>
      <rects>
        <_>
          3 16 6 8 -1.</_>
        <_>
          3 16 3 4 2.</_>
        <_>
          6 20 3 4 2.</_></rects>
      <tilted>0</tilted></_>
    <_>
      <rects>
        <_>
          4 0 10 1 -1.</_>
        <_>
          9 0 5 1 2.</_></rects>
      <tilted>0</tilted></_>
    <_>
      <rects>
        <_>
          4 1 15 4 -1.</_>
        <_>
          4 3 15 2 2.</_></rects>
      <tilted>0</tilted></_>
    <_>
      <rects>
        <_>
          4 3 6 4 -1.</_>
        <_>
          4 5 6 2 2.</_></rects>
      <tilted>0</tilted></_>
    <_>
      <rects>
        <_>
          4 4 6 2 -1.</_>
        <_>
          4 4 3 1 2.</_>
        <_>
          7 5 3 1 2.</_></rects>
      <tilted>0</tilted></_>
    <_>
      <rects>
        <_>
          4 6 14 6 -1.</_>
        <_>
          4 6 7 3 2.</_>
        <_>
          11 9 7 3 2.</_></rects>
      <tilted>0</tilted></_>
    <_>
      <rects>
        <_>
          4 8 4 2 -1.</_>
        <_>
          4 8 2 1 2.</_>
        <_>
          6 9 2 1 2.</_></rects>
      <tilted>0</tilted></_>
    <_>
      <rects>
        <_>
          4 9 4 2 -1.</_>
        <_>
          4 9 2 1 2.</_>
        <_>
          6 10 2 1 2.</_></rects>
      <tilted>0</tilted></_>
    <_>
      <rects>
        <_>
          4 12 13 4 -1.</_>
        <_>
          4 14 13 2 2.</_></rects>
      <tilted>0</tilted></_>
    <_>
      <rects>
        <_>
          4 14 2 1 -1.</_>
        <_>
          5 14 1 1 2.</_></rects>
      <tilted>0</tilted></_>
    <_>
      <rects>
        <_>
          5 0 2 2 -1.</_>
        <_>
          6 0 1 2 2.</_></rects>
      <tilted>0</tilted></_>
    <_>
      <rects>
        <_>
          5 0 8 4 -1.</_>
        <_>
          5 0 4 2 2.</_>
        <_>
          9 2 4 2 2.</_></rects>
      <tilted>0</tilted></_>
    <_>
      <rects>
        <_>
          5 0 16 8 -1.</_>
        <_>
          5 4 16 4 2.</_></rects>
      <tilted>0</tilted></_>
    <_>
      <rects>
        <_>
          5 1 15 1 -1.</_>
        <_>
          10 1 5 1 2.</_></rects>
      <tilted>0</tilted></_>
    <_>
      <rects>
        <_>
          5 1 8 2 -1.</_>
        <_>
          5 2 8 1 2.</_></rects>
      <tilted>0</tilted></_>
    <_>
      <rects>
        <_>
          5 1 11 6 -1.</_>
        <_>
          5 4 11 3 2.</_></rects>
      <tilted>0</tilted></_>
    <_>
      <rects>
        <_>
          5 2 12 18 -1.</_>
        <_>
          5 2 6 9 2.</_>
        <_>
          11 11 6 9 2.</_></rects>
      <tilted>0</tilted></_>
    <_>
      <rects>
        <_>
          5 3 13 12 -1.</_>
        <_>
          5 9 13 6 2.</_></rects>
      <tilted>0</tilted></_>
    <_>
      <rects>
        <_>
          5 5 4 14 -1.</_>
        <_>
          5 5 2 7 2.</_>
        <_>
          7 12 2 7 2.</_></rects>
      <tilted>0</tilted></_>
    <_>
      <rects>
        <_>
          5 6 8 18 -1.</_>
        <_>
          5 6 4 9 2.</_>
        <_>
          9 15 4 9 2.</_></rects>
      <tilted>0</tilted></_>
    <_>
      <rects>
        <_>
          5 9 8 2 -1.</_>
        <_>
          5 9 4 1 2.</_>
        <_>
          9 10 4 1 2.</_></rects>
      <tilted>0</tilted></_>
    <_>
      <rects>
        <_>
          5 9 10 2 -1.</_>
        <_>
          5 10 10 1 2.</_></rects>
      <tilted>0</tilted></_>
    <_>
      <rects>
        <_>
          5 12 8 2 -1.</_>
        <_>
          9 12 4 2 2.</_></rects>
      <tilted>0</tilted></_>
    <_>
      <rects>
        <_>
          5 15 12 4 -1.</_>
        <_>
          5 17 12 2 2.</_></rects>
      <tilted>0</tilted></_>
    <_>
      <rects>
        <_>
          5 15 12 6 -1.</_>
        <_>
          5 18 12 3 2.</_></rects>
      <tilted>0</tilted></_>
    <_>
      <rects>
        <_>
          5 18 8 6 -1.</_>
        <_>
          5 21 8 3 2.</_></rects>
      <tilted>0</tilted></_>
    <_>
      <rects>
        <_>
          5 19 2 1 -1.</_>
        <_>
          6 19 1 1 2.</_></rects>
      <tilted>0</tilted></_>
    <_>
      <rects>
        <_>
          6 0 6 1 -1.</_>
        <_>
          9 0 3 1 2.</_></rects>
      <tilted>0</tilted></_>
    <_>
      <rects>
        <_>
          6 2 4 18 -1.</_>
        <_>
          8 2 2 18 2.</_></rects>
      <tilted>0</tilted></_>
    <_>
      <rects>
        <_>
          6 2 14 2 -1.</_>
        <_>
          6 2 7 1 2.</_>
        <_>
          13 3 7 1 2.</_></rects>
      <tilted>0</tilted></_>
    <_>
      <rects>
        <_>
          6 2 14 9 -1.</_>
        <_>
          6 5 14 3 2.</_></rects>
      <tilted>0</tilted></_>
    <_>
      <rects>
        <_>
          6 6 4 2 -1.</_>
        <_>
          6 6 2 1 2.</_>
        <_>
          8 7 2 1 2.</_></rects>
      <tilted>0</tilted></_>
    <_>
      <rects>
        <_>
          6 7 16 2 -1.</_>
        <_>
          6 7 8 1 2.</_>
        <_>
          14 8 8 1 2.</_></rects>
      <tilted>0</tilted></_>
    <_>
      <rects>
        <_>
          6 11 10 6 -1.</_>
        <_>
          6 13 10 2 2.</_></rects>
      <tilted>0</tilted></_>
    <_>
      <rects>
        <_>
          6 13 6 6 -1.</_>
        <_>
          6 13 3 3 2.</_>
        <_>
          9 16 3 3 2.</_></rects>
      <tilted>0</tilted></_>
    <_>
      <rects>
        <_>
          6 15 9 3 -1.</_>
        <_>
          9 15 3 3 2.</_></rects>
      <tilted>0</tilted></_>
    <_>
      <rects>
        <_>
          6 16 8 8 -1.</_>
        <_>
          6 20 8 4 2.</_></rects>
      <tilted>0</tilted></_>
    <_>
      <rects>
        <_>
          6 19 6 2 -1.</_>
        <_>
          6 19 3 1 2.</_>
        <_>
          9 20 3 1 2.</_></rects>
      <tilted>0</tilted></_>
    <_>
      <rects>
        <_>
          7 0 6 12 -1.</_>
        <_>
          7 4 6 4 2.</_></rects>
      <tilted>0</tilted></_>
    <_>
      <rects>
        <_>
          7 2 1 2 -1.</_>
        <_>
          7 3 1 1 2.</_></rects>
      <tilted>0</tilted></_>
    <_>
      <rects>
        <_>
          7 3 2 4 -1.</_>
        <_>
          7 3 1 2 2.</_>
        <_>
          8 5 1 2 2.</_></rects>
      <tilted>0</tilted></_>
    <_>
      <rects>
        <_>
          7 8 12 6 -1.</_>
        <_>
          13 8 6 6 2.</_></rects>
      <tilted>0</tilted></_>
    <_>
      <rects>
        <_>
          7 9 3 14 -1.</_>
        <_>
          8 9 1 14 2.</_></rects>
      <tilted>0</tilted></_>
    <_>
      <rects>
        <_>
          7 10 3 2 -1.</_>
        <_>
          8 10 1 2 2.</_></rects>
      <tilted>0</tilted></_>
    <_>
      <rects>
        <_>
          7 10 11 2 -1.</_>
        <_>
          7 11 11 1 2.</_></rects>
      <tilted>0</tilted></_>
    <_>
      <rects>
        <_>
          7 11 13 2 -1.</_>
        <_>
          7 12 13 1 2.</_></rects>
      <tilted>0</tilted></_>
    <_>
      <rects>
        <_>
          7 12 4 10 -1.</_>
        <_>
          7 12 2 5 2.</_>
        <_>
          9 17 2 5 2.</_></rects>
      <tilted>0</tilted></_>
    <_>
      <rects>
        <_>
          7 14 10 4 -1.</_>
        <_>
          7 16 10 2 2.</_></rects>
      <tilted>0</tilted></_>
    <_>
      <rects>
        <_>
          7 15 2 2 -1.</_>
        <_>
          7 16 2 1 2.</_></rects>
      <tilted>0</tilted></_>
    <_>
      <rects>
        <_>
          8 0 10 2 -1.</_>
        <_>
          8 1 10 1 2.</_></rects>
      <tilted>0</tilted></_>
    <_>
      <rects>
        <_>
          8 1 4 2 -1.</_>
        <_>
          8 2 4 1 2.</_></rects>
      <tilted>0</tilted></_>
    <_>
      <rects>
        <_>
          8 3 4 6 -1.</_>
        <_>
          8 3 2 3 2.</_>
        <_>
          10 6 2 3 2.</_></rects>
      <tilted>0</tilted></_>
    <_>
      <rects>
        <_>
          8 3 6 4 -1.</_>
        <_>
          8 3 3 2 2.</_>
        <_>
          11 5 3 2 2.</_></rects>
      <tilted>0</tilted></_>
    <_>
      <rects>
        <_>
          8 6 2 2 -1.</_>
        <_>
          8 6 1 1 2.</_>
        <_>
          9 7 1 1 2.</_></rects>
      <tilted>0</tilted></_>
    <_>
      <rects>
        <_>
          8 7 4 2 -1.</_>
        <_>
          8 7 2 1 2.</_>
        <_>
          10 8 2 1 2.</_></rects>
      <tilted>0</tilted></_>
    <_>
      <rects>
        <_>
          8 7 3 2 -1.</_>
        <_>
          8 8 3 1 2.</_></rects>
      <tilted>0</tilted></_>
    <_>
      <rects>
        <_>
          8 7 10 2 -1.</_>
        <_>
          8 8 10 1 2.</_></rects>
      <tilted>0</tilted></_>
    <_>
      <rects>
        <_>
          8 8 2 2 -1.</_>
        <_>
          8 9 2 1 2.</_></rects>
      <tilted>0</tilted></_>
    <_>
      <rects>
        <_>
          8 8 7 2 -1.</_>
        <_>
          8 9 7 1 2.</_></rects>
      <tilted>0</tilted></_>
    <_>
      <rects>
        <_>
          8 9 4 2 -1.</_>
        <_>
          8 9 2 1 2.</_>
        <_>
          10 10 2 1 2.</_></rects>
      <tilted>0</tilted></_>
    <_>
      <rects>
        <_>
          8 9 10 6 -1.</_>
        <_>
          8 9 5 3 2.</_>
        <_>
          13 12 5 3 2.</_></rects>
      <tilted>0</tilted></_>
    <_>
      <rects>
        <_>
          8 10 9 2 -1.</_>
        <_>
          11 10 3 2 2.</_></rects>
      <tilted>0</tilted></_>
    <_>
      <rects>
        <_>
          8 12 12 4 -1.</_>
        <_>
          12 12 4 4 2.</_></rects>
      <tilted>0</tilted></_>
    <_>
      <rects>
        <_>
          8 14 3 4 -1.</_>
        <_>
          8 16 3 2 2.</_></rects>
      <tilted>0</tilted></_>
    <_>
      <rects>
        <_>
          8 15 3 3 -1.</_>
        <_>
          9 15 1 3 2.</_></rects>
      <tilted>0</tilted></_>
    <_>
      <rects>
        <_>
          8 17 6 6 -1.</_>
        <_>
          8 17 3 3 2.</_>
        <_>
          11 20 3 3 2.</_></rects>
      <tilted>0</tilted></_>
    <_>
      <rects>
        <_>
          8 20 8 4 -1.</_>
        <_>
          8 20 4 2 2.</_>
        <_>
          12 22 4 2 2.</_></rects>
      <tilted>0</tilted></_>
    <_>
      <rects>
        <_>
          8 21 8 2 -1.</_>
        <_>
          8 21 4 1 2.</_>
        <_>
          12 22 4 1 2.</_></rects>
      <tilted>0</tilted></_>
    <_>
      <rects>
        <_>
          9 2 4 1 -1.</_>
        <_>
          11 2 2 1 2.</_></rects>
      <tilted>0</tilted></_>
    <_>
      <rects>
        <_>
          9 3 2 14 -1.</_>
        <_>
          9 3 1 7 2.</_>
        <_>
          10 10 1 7 2.</_></rects>
      <tilted>0</tilted></_>
    <_>
      <rects>
        <_>
          9 3 12 18 -1.</_>
        <_>
          15 3 6 18 2.</_></rects>
      <tilted>0</tilted></_>
    <_>
      <rects>
        <_>
          9 4 4 2 -1.</_>
        <_>
          9 4 2 1 2.</_>
        <_>
          11 5 2 1 2.</_></rects>
      <tilted>0</tilted></_>
    <_>
      <rects>
        <_>
          9 5 1 9 -1.</_>
        <_>
          9 8 1 3 2.</_></rects>
      <tilted>0</tilted></_>
    <_>
      <rects>
        <_>
          9 6 3 3 -1.</_>
        <_>
          10 6 1 3 2.</_></rects>
      <tilted>0</tilted></_>
    <_>
      <rects>
        <_>
          9 8 9 2 -1.</_>
        <_>
          12 8 3 2 2.</_></rects>
      <tilted>0</tilted></_>
    <_>
      <rects>
        <_>
          9 8 12 9 -1.</_>
        <_>
          15 8 6 9 2.</_></rects>
      <tilted>0</tilted></_>
    <_>
      <rects>
        <_>
          9 11 14 6 -1.</_>
        <_>
          9 11 7 3 2.</_>
        <_>
          16 14 7 3 2.</_></rects>
      <tilted>0</tilted></_>
    <_>
      <rects>
        <_>
          9 14 2 2 -1.</_>
        <_>
          10 14 1 2 2.</_></rects>
      <tilted>0</tilted></_>
    <_>
      <rects>
        <_>
          9 14 14 2 -1.</_>
        <_>
          16 14 7 2 2.</_></rects>
      <tilted>0</tilted></_>
    <_>
      <rects>
        <_>
          9 15 4 5 -1.</_>
        <_>
          11 15 2 5 2.</_></rects>
      <tilted>0</tilted></_>
    <_>
      <rects>
        <_>
          9 15 4 9 -1.</_>
        <_>
          11 15 2 9 2.</_></rects>
      <tilted>0</tilted></_>
    <_>
      <rects>
        <_>
          9 16 4 7 -1.</_>
        <_>
          11 16 2 7 2.</_></rects>
      <tilted>0</tilted></_>
    <_>
      <rects>
        <_>
          9 20 2 4 -1.</_>
        <_>
          9 20 1 2 2.</_>
        <_>
          10 22 1 2 2.</_></rects>
      <tilted>0</tilted></_>
    <_>
      <rects>
        <_>
          9 20 3 2 -1.</_>
        <_>
          9 21 3 1 2.</_></rects>
      <tilted>0</tilted></_>
    <_>
      <rects>
        <_>
          9 22 1 2 -1.</_>
        <_>
          9 23 1 1 2.</_></rects>
      <tilted>0</tilted></_>
    <_>
      <rects>
        <_>
          10 1 2 6 -1.</_>
        <_>
          10 4 2 3 2.</_></rects>
      <tilted>0</tilted></_>
    <_>
      <rects>
        <_>
          10 2 4 2 -1.</_>
        <_>
          10 2 2 1 2.</_>
        <_>
          12 3 2 1 2.</_></rects>
      <tilted>0</tilted></_>
    <_>
      <rects>
        <_>
          10 4 7 6 -1.</_>
        <_>
          10 6 7 2 2.</_></rects>
      <tilted>0</tilted></_>
    <_>
      <rects>
        <_>
          10 5 1 3 -1.</_>
        <_>
          10 6 1 1 2.</_></rects>
      <tilted>0</tilted></_>
    <_>
      <rects>
        <_>
          10 5 4 2 -1.</_>
        <_>
          10 6 4 1 2.</_></rects>
      <tilted>0</tilted></_>
    <_>
      <rects>
        <_>
          10 5 14 4 -1.</_>
        <_>
          10 5 7 2 2.</_>
        <_>
          17 7 7 2 2.</_></rects>
      <tilted>0</tilted></_>
    <_>
      <rects>
        <_>
          10 5 12 12 -1.</_>
        <_>
          10 11 12 6 2.</_></rects>
      <tilted>0</tilted></_>
    <_>
      <rects>
        <_>
          10 6 2 8 -1.</_>
        <_>
          11 6 1 8 2.</_></rects>
      <tilted>0</tilted></_>
    <_>
      <rects>
        <_>
          10 8 7 16 -1.</_>
        <_>
          10 16 7 8 2.</_></rects>
      <tilted>0</tilted></_>
    <_>
      <rects>
        <_>
          10 8 9 2 -1.</_>
        <_>
          10 9 9 1 2.</_></rects>
      <tilted>0</tilted></_>
    <_>
      <rects>
        <_>
          10 9 10 2 -1.</_>
        <_>
          10 10 10 1 2.</_></rects>
      <tilted>0</tilted></_>
    <_>
      <rects>
        <_>
          10 11 10 12 -1.</_>
        <_>
          10 15 10 4 2.</_></rects>
      <tilted>0</tilted></_>
    <_>
      <rects>
        <_>
          10 12 6 6 -1.</_>
        <_>
          10 15 6 3 2.</_></rects>
      <tilted>0</tilted></_>
    <_>
      <rects>
        <_>
          10 13 6 7 -1.</_>
        <_>
          13 13 3 7 2.</_></rects>
      <tilted>0</tilted></_>
    <_>
      <rects>
        <_>
          10 18 4 6 -1.</_>
        <_>
          10 21 4 3 2.</_></rects>
      <tilted>0</tilted></_>
    <_>
      <rects>
        <_>
          10 21 9 1 -1.</_>
        <_>
          13 21 3 1 2.</_></rects>
      <tilted>0</tilted></_>
    <_>
      <rects>
        <_>
          10 22 14 2 -1.</_>
        <_>
          17 22 7 2 2.</_></rects>
      <tilted>0</tilted></_>
    <_>
      <rects>
        <_>
          11 1 3 6 -1.</_>
        <_>
          12 1 1 6 2.</_></rects>
      <tilted>0</tilted></_>
    <_>
      <rects>
        <_>
          11 1 4 15 -1.</_>
        <_>
          11 6 4 5 2.</_></rects>
      <tilted>0</tilted></_>
    <_>
      <rects>
        <_>
          11 1 6 2 -1.</_>
        <_>
          11 2 6 1 2.</_></rects>
      <tilted>0</tilted></_>
    <_>
      <rects>
        <_>
          11 2 2 4 -1.</_>
        <_>
          11 2 1 2 2.</_>
        <_>
          12 4 1 2 2.</_></rects>
      <tilted>0</tilted></_>
    <_>
      <rects>
        <_>
          11 4 6 4 -1.</_>
        <_>
          11 4 3 2 2.</_>
        <_>
          14 6 3 2 2.</_></rects>
      <tilted>0</tilted></_>
    <_>
      <rects>
        <_>
          11 5 8 2 -1.</_>
        <_>
          11 5 4 1 2.</_>
        <_>
          15 6 4 1 2.</_></rects>
      <tilted>0</tilted></_>
    <_>
      <rects>
        <_>
          11 8 2 9 -1.</_>
        <_>
          11 11 2 3 2.</_></rects>
      <tilted>0</tilted></_>
    <_>
      <rects>
        <_>
          11 10 2 2 -1.</_>
        <_>
          12 10 1 2 2.</_></rects>
      <tilted>0</tilted></_>
    <_>
      <rects>
        <_>
          11 10 10 2 -1.</_>
        <_>
          11 10 5 1 2.</_>
        <_>
          16 11 5 1 2.</_></rects>
      <tilted>0</tilted></_>
    <_>
      <rects>
        <_>
          11 15 8 2 -1.</_>
        <_>
          11 15 4 1 2.</_>
        <_>
          15 16 4 1 2.</_></rects>
      <tilted>0</tilted></_>
    <_>
      <rects>
        <_>
          12 1 4 4 -1.</_>
        <_>
          12 1 2 2 2.</_>
        <_>
          14 3 2 2 2.</_></rects>
      <tilted>0</tilted></_>
    <_>
      <rects>
        <_>
          12 4 2 15 -1.</_>
        <_>
          12 9 2 5 2.</_></rects>
      <tilted>0</tilted></_>
    <_>
      <rects>
        <_>
          12 4 10 18 -1.</_>
        <_>
          12 4 5 9 2.</_>
        <_>
          17 13 5 9 2.</_></rects>
      <tilted>0</tilted></_>
    <_>
      <rects>
        <_>
          12 7 8 8 -1.</_>
        <_>
          12 7 4 4 2.</_>
        <_>
          16 11 4 4 2.</_></rects>
      <tilted>0</tilted></_>
    <_>
      <rects>
        <_>
          12 7 12 14 -1.</_>
        <_>
          18 7 6 14 2.</_></rects>
      <tilted>0</tilted></_>
    <_>
      <rects>
        <_>
          12 10 1 2 -1.</_>
        <_>
          12 11 1 1 2.</_></rects>
      <tilted>0</tilted></_>
    <_>
      <rects>
        <_>
          12 12 2 10 -1.</_>
        <_>
          13 12 1 10 2.</_></rects>
      <tilted>0</tilted></_>
    <_>
      <rects>
        <_>
          12 16 10 8 -1.</_>
        <_>
          12 16 5 4 2.</_>
        <_>
          17 20 5 4 2.</_></rects>
      <tilted>0</tilted></_>
    <_>
      <rects>
        <_>
          12 19 4 2 -1.</_>
        <_>
          12 19 2 1 2.</_>
        <_>
          14 20 2 1 2.</_></rects>
      <tilted>0</tilted></_>
    <_>
      <rects>
        <_>
          13 2 10 10 -1.</_>
        <_>
          13 2 5 5 2.</_>
        <_>
          18 7 5 5 2.</_></rects>
      <tilted>0</tilted></_>
    <_>
      <rects>
        <_>
          13 6 2 17 -1.</_>
        <_>
          14 6 1 17 2.</_></rects>
      <tilted>0</tilted></_>
    <_>
      <rects>
        <_>
          13 7 8 2 -1.</_>
        <_>
          13 7 4 1 2.</_>
        <_>
          17 8 4 1 2.</_></rects>
      <tilted>0</tilted></_>
    <_>
      <rects>
        <_>
          13 8 6 1 -1.</_>
        <_>
          16 8 3 1 2.</_></rects>
      <tilted>0</tilted></_>
    <_>
      <rects>
        <_>
          13 9 1 2 -1.</_>
        <_>
          13 10 1 1 2.</_></rects>
      <tilted>0</tilted></_>
    <_>
      <rects>
        <_>
          13 9 4 4 -1.</_>
        <_>
          15 9 2 4 2.</_></rects>
      <tilted>0</tilted></_>
    <_>
      <rects>
        <_>
          13 12 1 2 -1.</_>
        <_>
          13 13 1 1 2.</_></rects>
      <tilted>0</tilted></_>
    <_>
      <rects>
        <_>
          13 12 8 12 -1.</_>
        <_>
          13 16 8 4 2.</_></rects>
      <tilted>0</tilted></_>
    <_>
      <rects>
        <_>
          13 14 2 4 -1.</_>
        <_>
          13 14 1 2 2.</_>
        <_>
          14 16 1 2 2.</_></rects>
      <tilted>0</tilted></_>
    <_>
      <rects>
        <_>
          13 22 9 2 -1.</_>
        <_>
          13 23 9 1 2.</_></rects>
      <tilted>0</tilted></_>
    <_>
      <rects>
        <_>
          14 2 8 17 -1.</_>
        <_>
          18 2 4 17 2.</_></rects>
      <tilted>0</tilted></_>
    <_>
      <rects>
        <_>
          14 5 4 4 -1.</_>
        <_>
          14 5 2 2 2.</_>
        <_>
          16 7 2 2 2.</_></rects>
      <tilted>0</tilted></_>
    <_>
      <rects>
        <_>
          14 6 6 10 -1.</_>
        <_>
          14 6 3 5 2.</_>
        <_>
          17 11 3 5 2.</_></rects>
      <tilted>0</tilted></_>
    <_>
      <rects>
        <_>
          14 10 2 1 -1.</_>
        <_>
          15 10 1 1 2.</_></rects>
      <tilted>0</tilted></_>
    <_>
      <rects>
        <_>
          14 13 2 2 -1.</_>
        <_>
          14 13 1 1 2.</_>
        <_>
          15 14 1 1 2.</_></rects>
      <tilted>0</tilted></_>
    <_>
      <rects>
        <_>
          14 18 10 6 -1.</_>
        <_>
          19 18 5 6 2.</_></rects>
      <tilted>0</tilted></_>
    <_>
      <rects>
        <_>
          14 23 10 1 -1.</_>
        <_>
          19 23 5 1 2.</_></rects>
      <tilted>0</tilted></_>
    <_>
      <rects>
        <_>
          15 0 9 5 -1.</_>
        <_>
          18 0 3 5 2.</_></rects>
      <tilted>0</tilted></_>
    <_>
      <rects>
        <_>
          15 2 5 6 -1.</_>
        <_>
          15 5 5 3 2.</_></rects>
      <tilted>0</tilted></_>
    <_>
      <rects>
        <_>
          15 5 2 1 -1.</_>
        <_>
          16 5 1 1 2.</_></rects>
      <tilted>0</tilted></_>
    <_>
      <rects>
        <_>
          15 8 9 4 -1.</_>
        <_>
          15 10 9 2 2.</_></rects>
      <tilted>0</tilted></_>
    <_>
      <rects>
        <_>
          15 15 1 4 -1.</_>
        <_>
          15 17 1 2 2.</_></rects>
      <tilted>0</tilted></_>
    <_>
      <rects>
        <_>
          15 16 2 1 -1.</_>
        <_>
          16 16 1 1 2.</_></rects>
      <tilted>0</tilted></_>
    <_>
      <rects>
        <_>
          15 16 3 1 -1.</_>
        <_>
          16 16 1 1 2.</_></rects>
      <tilted>0</tilted></_>
    <_>
      <rects>
        <_>
          16 0 2 2 -1.</_>
        <_>
          17 0 1 2 2.</_></rects>
      <tilted>0</tilted></_>
    <_>
      <rects>
        <_>
          16 0 1 15 -1.</_>
        <_>
          16 5 1 5 2.</_></rects>
      <tilted>0</tilted></_>
    <_>
      <rects>
        <_>
          16 6 4 13 -1.</_>
        <_>
          18 6 2 13 2.</_></rects>
      <tilted>0</tilted></_>
    <_>
      <rects>
        <_>
          16 6 8 2 -1.</_>
        <_>
          16 6 4 1 2.</_>
        <_>
          20 7 4 1 2.</_></rects>
      <tilted>0</tilted></_>
    <_>
      <rects>
        <_>
          16 7 2 4 -1.</_>
        <_>
          17 7 1 4 2.</_></rects>
      <tilted>0</tilted></_>
    <_>
      <rects>
        <_>
          16 13 2 8 -1.</_>
        <_>
          16 13 1 4 2.</_>
        <_>
          17 17 1 4 2.</_></rects>
      <tilted>0</tilted></_>
    <_>
      <rects>
        <_>
          16 21 4 1 -1.</_>
        <_>
          18 21 2 1 2.</_></rects>
      <tilted>0</tilted></_>
    <_>
      <rects>
        <_>
          17 1 2 4 -1.</_>
        <_>
          18 1 1 4 2.</_></rects>
      <tilted>0</tilted></_>
    <_>
      <rects>
        <_>
          17 5 4 2 -1.</_>
        <_>
          17 5 2 1 2.</_>
        <_>
          19 6 2 1 2.</_></rects>
      <tilted>0</tilted></_>
    <_>
      <rects>
        <_>
          17 5 4 18 -1.</_>
        <_>
          17 5 2 9 2.</_>
        <_>
          19 14 2 9 2.</_></rects>
      <tilted>0</tilted></_>
    <_>
      <rects>
        <_>
          17 6 1 2 -1.</_>
        <_>
          17 7 1 1 2.</_></rects>
      <tilted>0</tilted></_>
    <_>
      <rects>
        <_>
          17 12 2 8 -1.</_>
        <_>
          18 12 1 8 2.</_></rects>
      <tilted>0</tilted></_>
    <_>
      <rects>
        <_>
          17 18 6 6 -1.</_>
        <_>
          19 18 2 6 2.</_></rects>
      <tilted>0</tilted></_>
    <_>
      <rects>
        <_>
          17 19 4 4 -1.</_>
        <_>
          19 19 2 4 2.</_></rects>
      <tilted>0</tilted></_>
    <_>
      <rects>
        <_>
          17 22 1 2 -1.</_>
        <_>
          17 23 1 1 2.</_></rects>
      <tilted>0</tilted></_>
    <_>
      <rects>
        <_>
          18 1 4 1 -1.</_>
        <_>
          20 1 2 1 2.</_></rects>
      <tilted>0</tilted></_>
    <_>
      <rects>
        <_>
          18 2 6 1 -1.</_>
        <_>
          21 2 3 1 2.</_></rects>
      <tilted>0</tilted></_>
    <_>
      <rects>
        <_>
          18 3 2 4 -1.</_>
        <_>
          19 3 1 4 2.</_></rects>
      <tilted>0</tilted></_>
    <_>
      <rects>
        <_>
          18 3 6 1 -1.</_>
        <_>
          21 3 3 1 2.</_></rects>
      <tilted>0</tilted></_>
    <_>
      <rects>
        <_>
          18 5 1 2 -1.</_>
        <_>
          18 6 1 1 2.</_></rects>
      <tilted>0</tilted></_>
    <_>
      <rects>
        <_>
          18 5 4 12 -1.</_>
        <_>
          18 5 2 6 2.</_>
        <_>
          20 11 2 6 2.</_></rects>
      <tilted>0</tilted></_>
    <_>
      <rects>
        <_>
          18 6 2 2 -1.</_>
        <_>
          18 6 1 1 2.</_>
        <_>
          19 7 1 1 2.</_></rects>
      <tilted>0</tilted></_>
    <_>
      <rects>
        <_>
          18 8 6 6 -1.</_>
        <_>
          18 11 6 3 2.</_></rects>
      <tilted>0</tilted></_>
    <_>
      <rects>
        <_>
          18 17 5 4 -1.</_>
        <_>
          18 19 5 2 2.</_></rects>
      <tilted>0</tilted></_>
    <_>
      <rects>
        <_>
          18 23 6 1 -1.</_>
        <_>
          21 23 3 1 2.</_></rects>
      <tilted>0</tilted></_>
    <_>
      <rects>
        <_>
          20 4 2 14 -1.</_>
        <_>
          20 11 2 7 2.</_></rects>
      <tilted>0</tilted></_>
    <_>
      <rects>
        <_>
          20 6 4 6 -1.</_>
        <_>
          22 6 2 6 2.</_></rects>
      <tilted>0</tilted></_>
    <_>
      <rects>
        <_>
          20 7 2 2 -1.</_>
        <_>
          21 7 1 2 2.</_></rects>
      <tilted>0</tilted></_>
    <_>
      <rects>
        <_>
          20 7 2 6 -1.</_>
        <_>
          20 7 1 3 2.</_>
        <_>
          21 10 1 3 2.</_></rects>
      <tilted>0</tilted></_>
    <_>
      <rects>
        <_>
          20 7 1 12 -1.</_>
        <_>
          20 13 1 6 2.</_></rects>
      <tilted>0</tilted></_>
    <_>
      <rects>
        <_>
          20 15 4 4 -1.</_>
        <_>
          22 15 2 4 2.</_></rects>
      <tilted>0</tilted></_>
    <_>
      <rects>
        <_>
          21 0 2 3 -1.</_>
        <_>
          22 0 1 3 2.</_></rects>
      <tilted>0</tilted></_>
    <_>
      <rects>
        <_>
          21 1 2 4 -1.</_>
        <_>
          22 1 1 4 2.</_></rects>
      <tilted>0</tilted></_>
    <_>
      <rects>
        <_>
          21 7 2 1 -1.</_>
        <_>
          22 7 1 1 2.</_></rects>
      <tilted>0</tilted></_>
    <_>
      <rects>
        <_>
          21 9 1 12 -1.</_>
        <_>
          21 13 1 4 2.</_></rects>
      <tilted>0</tilted></_>
    <_>
      <rects>
        <_>
          21 12 2 4 -1.</_>
        <_>
          21 14 2 2 2.</_></rects>
      <tilted>0</tilted></_>
    <_>
      <rects>
        <_>
          21 21 2 3 -1.</_>
        <_>
          22 21 1 3 2.</_></rects>
      <tilted>0</tilted></_>
    <_>
      <rects>
        <_>
          22 0 2 4 -1.</_>
        <_>
          22 0 1 2 2.</_>
        <_>
          23 2 1 2 2.</_></rects>
      <tilted>0</tilted></_>
    <_>
      <rects>
        <_>
          22 1 2 1 -1.</_>
        <_>
          23 1 1 1 2.</_></rects>
      <tilted>0</tilted></_>
    <_>
      <rects>
        <_>
          22 1 2 2 -1.</_>
        <_>
          23 1 1 2 2.</_></rects>
      <tilted>0</tilted></_>
    <_>
      <rects>
        <_>
          22 2 2 20 -1.</_>
        <_>
          22 2 1 10 2.</_>
        <_>
          23 12 1 10 2.</_></rects>
      <tilted>0</tilted></_>
    <_>
      <rects>
        <_>
          22 2 2 17 -1.</_>
        <_>
          23 2 1 17 2.</_></rects>
      <tilted>0</tilted></_>
    <_>
      <rects>
        <_>
          22 2 2 9 -1.</_>
        <_>
          22 5 2 3 2.</_></rects>
      <tilted>0</tilted></_>
    <_>
      <rects>
        <_>
          22 7 2 8 -1.</_>
        <_>
          22 7 1 4 2.</_>
        <_>
          23 11 1 4 2.</_></rects>
      <tilted>0</tilted></_>
    <_>
      <rects>
        <_>
          22 8 2 16 -1.</_>
        <_>
          23 8 1 16 2.</_></rects>
      <tilted>0</tilted></_>
    <_>
      <rects>
        <_>
          22 12 2 6 -1.</_>
        <_>
          23 12 1 6 2.</_></rects>
      <tilted>0</tilted></_>
    <_>
      <rects>
        <_>
          22 15 1 2 -1.</_>
        <_>
          22 16 1 1 2.</_></rects>
      <tilted>0</tilted></_>
    <_>
      <rects>
        <_>
          22 15 2 4 -1.</_>
        <_>
          22 15 1 2 2.</_>
        <_>
          23 17 1 2 2.</_></rects>
      <tilted>0</tilted></_>
    <_>
      <rects>
        <_>
          22 18 2 1 -1.</_>
        <_>
          23 18 1 1 2.</_></rects>
      <tilted>0</tilted></_>
    <_>
      <rects>
        <_>
          22 19 2 3 -1.</_>
        <_>
          23 19 1 3 2.</_></rects>
      <tilted>0</tilted></_>
    <_>
      <rects>
        <_>
          23 16 1 6 -1.</_>
        <_>
          23 18 1 2 2.</_></rects>
      <tilted>0</tilted></_></features></cascade>
</opencv_storage>
